{"learner":{"attributes":{"best_iteration":"235","best_score":"0.8738240857574496","scikit_learn":"{\"_estimator_type\": \"classifier\"}"},"feature_names":["current_ratio","cash_ratio","debt_to_equity","gearing","solvabilite","roe","roa","marge_nette","rotation_actif","altman_z"],"feature_types":["float","float","float","float","float","float","float","float","float","float"],"gradient_booster":{"model":{"cats":{"enc":[],"feature_segments":[],"sorted_idx":[]},"gbtree_model_param":{"num_parallel_tree":"1","num_trees":"266"},"iteration_indptr":[0,1,2,3,4,5,6,7,8,9,10,11,12,13,14,15,16,17,18,19,20,21,22,23,24,25,26,27,28,29,30,31,32,33,34,35,36,37,38,39,40,41,42,43,44,45,46,47,48,49,50,51,52,53,54,55,56,57,58,59,60,61,62,63,64,65,66,67,68,69,70,71,72,73,74,75,76,77,78,79,80,81,82,83,84,85,86,87,88,89,90,91,92,93,94,95,96,97,98,99,100,101,102,103,104,105,106,107,108,109,110,111,112,113,114,115,116,117,118,119,120,121,122,123,124,125,126,127,128,129,130,131,132,133,134,135,136,137,138,139,140,141,142,143,144,145,146,147,148,149,150,151,152,153,154,155,156,157,158,159,160,161,162,163,164,165,166,167,168,169,170,171,172,173,174,175,176,177,178,179,180,181,182,183,184,185,186,187,188,189,190,191,192,193,194,195,196,197,198,199,200,201,202,203,204,205,206,207,208,209,210,211,212,213,214,215,216,217,218,219,220,221,222,223,224,225,226,227,228,229,230,231,232,233,234,235,236,237,238,239,240,241,242,243,244,245,246,247,248,249,250,251,252,253,254,255,256,257,258,259,260,261,262,263,264,265,266],"tree_info":[0,0,0,0,0,0,0,0,0,0,0,0,0,0,0,0,0,0,0,0,0,0,0,0,0,0,0,0,0,0,0,0,0,0,0,0,0,0,0,0,0,0,0,0,0,0,0,0,0,0,0,0,0,0,0,0,0,0,0,0,0,0,0,0,0,0,0,0,0,0,0,0,0,0,0,0,0,0,0,0,0,0,0,0,0,0,0,0,0,0,0,0,0,0,0,0,0,0,0,0,0,0,0,0,0,0,0,0,0,0,0,0,0,0,0,0,0,0,0,0,0,0,0,0,0,0,0,0,0,0,0,0,0,0,0,0,0,0,0,0,0,0,0,0,0,0,0,0,0,0,0,0,0,0,0,0,0,0,0,0,0,0,0,0,0,0,0,0,0,0,0,0,0,0,0,0,0,0,0,0,0,0,0,0,0,0,0,0,0,0,0,0,0,0,0,0,0,0,0,0,0,0,0,0,0,0,0,0,0,0,0,0,0,0,0,0,0,0,0,0,0,0,0,0,0,0,0,0,0,0,0,0,0,0,0,0,0,0,0,0,0,0,0,0,0,0,0,0,0,0,0,0,0,0,0,0,0,0,0,0,0,0,0,0,0,0],"trees":[{"base_weights":[-1.1935111E-2,1.0695235E0,-2.4730778E-1,3.172131E-1,1.282662E0,-5.7161975E-1,3.4221536E-1,-4.8296237E-1,8.9996964E-1,1.4250404E0,-4.0199775E-1,-1.8997577E-1,-9.333958E-1,-1.42031405E-2,5.856966E-1,-5.5461433E-2,3.1241411E-2,1.7467935E-2,6.669423E-2,5.7954933E-2,7.735759E-2,-5.159971E-2,2.7263442E-2,1.9644802E-2,-3.904389E-2,-5.2118625E-2,-5.234382E-3,4.4350402E-4,-9.977104E-2,4.8448037E-2,2.4785182E-2],"categories":[],"categories_nodes":[],"categories_segments":[],"categories_sizes":[],"default_left":[0,0,0,0,0,0,0,0,0,0,0,0,0,0,0,0,0,0,0,0,0,0,0,0,0,0,0,0,0,0,0],"id":0,"left_children":[1,3,5,7,9,11,13,15,17,19,21,23,25,27,29,-1,-1,-1,-1,-1,-1,-1,-1,-1,-1,-1,-1,-1,-1,-1,-1],"loss_changes":[8.163404E4,9.19118E3,5.035592E4,5.902202E3,1.0714578E4,2.3459242E4,8.1116484E3,3.7012383E3,1.7492373E3,1.3357422E3,2.0783442E3,2.8478977E4,7.8771797E3,1.7343065E3,1.9149727E3,0E0,0E0,0E0,0E0,0E0,0E0,0E0,0E0,0E0,0E0,0E0,0E0,0E0,0E0,0E0,0E0],"parents":[2147483647,0,0,1,1,2,2,3,3,4,4,5,5,6,6,7,7,8,8,9,9,10,10,11,11,12,12,13,13,14,14],"right_children":[2,4,6,8,10,12,14,16,18,20,22,24,26,28,30,-1,-1,-1,-1,-1,-1,-1,-1,-1,-1,-1,-1,-1,-1,-1,-1],"split_conditions":[5.3504294E-1,4.8428002E-1,9.672099E0,9.648946E-2,1.0313793E0,1.7419821E-1,1.0043277E0,1.1524038E0,3.7086399E0,1.0051681E-2,1.2330834E1,5.630474E-2,1.6729385E1,5.9979296E-1,3.9630213E0,-5.5461433E-2,3.1241411E-2,1.7467935E-2,6.669423E-2,5.7954933E-2,7.735759E-2,-5.159971E-2,2.7263442E-2,1.9644802E-2,-3.904389E-2,-5.2118625E-2,-5.234382E-3,4.4350402E-4,-9.977104E-2,4.8448037E-2,2.4785182E-2],"split_indices":[2,2,5,0,4,4,7,7,9,0,9,5,9,4,2,0,0,0,0,0,0,0,0,0,0,0,0,0,0,0,0],"split_type":[0,0,0,0,0,0,0,0,0,0,0,0,0,0,0,0,0,0,0,0,0,0,0,0,0,0,0,0,0,0,0],"sum_hessian":[3.207027E5,5.7322312E4,2.6338038E5,1.2655386E4,4.4666926E4,1.6990903E5,9.3471336E4,5.332951E3,7.3224346E3,4.1186242E4,3.480685E3,8.268484E4,8.722419E4,3.793758E4,5.5533758E4,3.4069192E3,1.926032E3,3.2280479E3,4.0943862E3,1.2963659E4,2.8222584E4,2.0903628E3,1.3903224E3,4.162543E4,4.1059418E4,7.708687E4,1.0137321E4,3.750183E4,4.3575E2,1.0558248E4,4.497551E4],"tree_param":{"num_deleted":"0","num_feature":"10","num_nodes":"31","size_leaf_vector":"1"}},{"base_weights":[-1.0738095E-3,1.1730561E0,-2.9478052E-1,1.3710777E0,5.966527E-1,-5.5086386E-1,2.9261485E-1,1.4650071E0,1.1014122E0,6.8840307E-1,-1.3152907E0,-2.3289724E-1,-9.2340004E-1,-1.8071274E-1,5.181876E-1,6.7120545E-2,8.036511E-2,4.2710517E-2,6.870004E-2,3.701209E-2,-9.973087E-2,-9.876789E-2,9.683444E-2,-2.2026872E-2,2.2093056E-2,-5.5649396E-2,-1.857719E-2,1.6433556E-2,-1.6360572E-2,6.1624266E-2,2.2115339E-2],"categories":[],"categories_nodes":[],"categories_segments":[],"categories_sizes":[],"default_left":[0,0,0,0,0,0,0,0,0,0,0,0,0,0,0,0,0,0,0,0,0,0,0,0,0,0,0,0,0,0,0],"id":1,"left_children":[1,3,5,7,9,11,13,15,17,19,21,23,25,27,29,-1,-1,-1,-1,-1,-1,-1,-1,-1,-1,-1,-1,-1,-1,-1,-1],"loss_changes":[1.11276875E5,7.368883E3,3.8826387E4,1.2156328E3,2.8974058E3,2.1291984E4,8.367148E3,6.195547E2,8.3565137E2,2.1929194E3,1.627505E3,1.358768E4,8.659656E3,1.8876082E3,2.876087E3,0E0,0E0,0E0,0E0,0E0,0E0,0E0,0E0,0E0,0E0,0E0,0E0,0E0,0E0,0E0,0E0],"parents":[2147483647,0,0,1,1,2,2,3,3,4,4,5,5,6,6,7,7,8,8,9,9,10,10,11,11,12,12,13,13,14,14],"right_children":[2,4,6,8,10,12,14,16,18,20,22,24,26,28,30,-1,-1,-1,-1,-1,-1,-1,-1,-1,-1,-1,-1,-1,-1,-1,-1],"split_conditions":[-1.437874E-3,4.0824485E0,1.1029444E1,-2.0642276E0,-7.843303E-1,5.630474E-2,9.8405945E-1,7.9747504E-1,2.3865567E-1,1.433799E2,4.98308E0,1.3580859E1,5.799825E0,4.362999E0,1.0018121E0,6.7120545E-2,8.036511E-2,4.2710517E-2,6.870004E-2,3.701209E-2,-9.973087E-2,-9.876789E-2,9.683444E-2,-2.2026872E-2,2.2093056E-2,-5.5649396E-2,-1.857719E-2,1.6433556E-2,-1.6360572E-2,6.1624266E-2,2.2115339E-2],"split_indices":[3,2,5,3,3,5,7,9,0,7,0,2,5,3,3,0,0,0,0,0,0,0,0,0,0,0,0,0,0,0,0],"split_type":[0,0,0,0,0,0,0,0,0,0,0,0,0,0,0,0,0,0,0,0,0,0,0,0,0,0,0,0,0,0,0],"sum_hessian":[3.226801E5,6.456606E4,2.5811402E5,4.8055402E4,1.6510656E4,1.7974967E5,7.836436E4,3.563772E4,1.2417686E4,1.5755232E4,7.554225E2,9.697839E4,8.277127E4,2.5292459E4,5.30719E4,1.9149584E4,1.6488133E4,6.514253E3,5.9034326E3,1.5457306E4,2.979268E2,6.282888E2,1.27133675E2,7.415834E4,2.2820047E4,6.1605832E4,2.116544E4,5.649075E3,1.9643385E4,5.0950312E3,4.7976867E4],"tree_param":{"num_deleted":"0","num_feature":"10","num_nodes":"31","size_leaf_vector":"1"}},{"base_weights":[-5.0653573E-3,9.1854703E-1,-3.2844394E-1,2.4727516E-1,1.1100708E0,-5.8180434E-1,2.9666388E-1,-1.5949275E-1,8.225272E-1,1.3055357E0,6.0150105E-1,-2.9513416E-1,-8.549515E-1,-6.1562303E-2,5.7833767E-1,-4.4724606E-3,-1.019965E-1,6.111403E-2,4.425304E-3,7.2001666E-2,4.6280973E-2,-1.8169506E-2,4.589798E-2,-3.5532434E-2,5.6425836E-3,-5.420509E-2,-1.8244551E-2,1.0602908E-2,-2.318533E-2,3.768707E-2,1.22156665E-2],"categories":[],"categories_nodes":[],"categories_segments":[],"categories_sizes":[],"default_left":[0,0,0,0,0,0,0,0,0,0,0,0,0,0,0,0,0,0,0,0,0,0,0,0,0,0,0,0,0,0,0],"id":2,"left_children":[1,3,5,7,9,11,13,15,17,19,21,23,25,27,29,-1,-1,-1,-1,-1,-1,-1,-1,-1,-1,-1,-1,-1,-1,-1,-1],"loss_changes":[9.599042E4,1.071482E4,3.7700656E4,4.329502E3,6.4451094E3,1.3263371E4,6.927492E3,1.4274559E3,2.2487192E3,2.3920547E3,5.497996E3,1.4011196E4,9.740234E3,3.3255295E3,2.2516348E3,0E0,0E0,0E0,0E0,0E0,0E0,0E0,0E0,0E0,0E0,0E0,0E0,0E0,0E0,0E0,0E0],"parents":[2147483647,0,0,1,1,2,2,3,3,4,4,5,5,6,6,7,7,8,8,9,9,10,10,11,11,12,12,13,13,14,14],"right_children":[2,4,6,8,10,12,14,16,18,20,22,24,26,28,30,-1,-1,-1,-1,-1,-1,-1,-1,-1,-1,-1,-1,-1,-1,-1,-1],"split_conditions":[2.6762334E-1,2.6932845E-2,1.3922298E1,1.9219571E-1,-2.9846698E-1,5.630474E-2,1.0175304E0,1.4711443E-1,-7.843303E-1,3.7362928E0,9.648946E-2,4.39929E0,5.799825E0,4.0515163E1,3.0373678E1,-4.4724606E-3,-1.019965E-1,6.111403E-2,4.425304E-3,7.2001666E-2,4.6280973E-2,-1.8169506E-2,4.589798E-2,-3.5532434E-2,5.6425836E-3,-5.420509E-2,-1.8244551E-2,1.0602908E-2,-2.318533E-2,3.768707E-2,1.22156665E-2],"split_indices":[3,1,5,9,3,5,7,0,3,2,0,2,5,2,3,0,0,0,0,0,0,0,0,0,0,0,0,0,0,0,0],"split_type":[0,0,0,0,0,0,0,0,0,0,0,0,0,0,0,0,0,0,0,0,0,0,0,0,0,0,0,0,0,0,0],"sum_hessian":[3.2138394E5,8.33431E4,2.3804086E5,1.8501053E4,6.4842047E4,1.6938717E5,6.865368E4,1.0838053E4,7.6629995E3,4.6838473E4,1.8003574E4,8.2648734E4,8.673844E4,3.0220602E4,3.8433082E4,1.0449858E4,3.881944E2,4.9607007E3,2.702299E3,3.4590125E4,1.224835E4,4.446357E3,1.3557217E4,4.09462E4,4.1702535E4,5.9101562E4,2.7636871E4,1.7984412E4,1.2236188E4,2.5199168E4,1.3233912E4],"tree_param":{"num_deleted":"0","num_feature":"10","num_nodes":"31","size_leaf_vector":"1"}},{"base_weights":[-1.5379786E-2,1.0792E0,-2.8032285E-1,5.1690525E-1,1.2424353E0,-4.9191704E-1,8.025441E-2,-1.5529615E-1,1.1819438E0,1.4107025E0,9.8920083E-1,-2.1073511E-1,-8.3393997E-1,-5.236641E-1,2.5657815E-1,-3.1189049E-2,2.2455355E-2,6.136441E-2,-1.0793885E-1,7.2992906E-2,5.9668668E-2,6.846127E-2,4.183104E-2,-2.1322004E-2,2.0683262E-2,-4.8177704E-2,-2.036853E-2,-1.5816787E-2,-5.5137943E-2,-5.1965644E-3,1.7516308E-2],"categories":[],"categories_nodes":[],"categories_segments":[],"categories_sizes":[],"default_left":[0,0,0,0,0,0,0,0,0,0,0,0,0,0,0,0,0,0,0,0,0,0,0,0,0,0,0,0,0,0,0],"id":3,"left_children":[1,3,5,7,9,11,13,15,17,19,21,23,25,27,29,-1,-1,-1,-1,-1,-1,-1,-1,-1,-1,-1,-1,-1,-1,-1,-1],"loss_changes":[9.2542586E4,5.707375E3,1.9602225E4,6.255737E3,2.0522812E3,1.5570867E4,1.0117632E4,1.9710432E3,1.0682139E3,3.075586E2,1.1146758E3,1.1968387E4,4.0385898E3,2.5776357E3,2.485545E3,0E0,0E0,0E0,0E0,0E0,0E0,0E0,0E0,0E0,0E0,0E0,0E0,0E0,0E0,0E0,0E0],"parents":[2147483647,0,0,1,1,2,2,3,3,4,4,5,5,6,6,7,7,8,8,9,9,10,10,11,11,12,12,13,13,14,14],"right_children":[2,4,6,8,10,12,14,16,18,20,22,24,26,28,30,-1,-1,-1,-1,-1,-1,-1,-1,-1,-1,-1,-1,-1,-1,-1,-1],"split_conditions":[-1.2677462E-1,2.8882287E-2,9.8183036E-1,-1.6284227E-2,5.3504294E-1,2.6020408E-3,3.8213536E-1,1.471339E-1,9.231293E0,-2.0642276E0,2.6020408E-3,1.3580859E1,9.417958E-1,6.33173E-2,1.024465E0,-3.1189049E-2,2.2455355E-2,6.136441E-2,-1.0793885E-1,7.2992906E-2,5.9668668E-2,6.846127E-2,4.183104E-2,-2.1322004E-2,2.0683262E-2,-4.8177704E-2,-2.036853E-2,-1.5816787E-2,-5.5137943E-2,-5.1965644E-3,1.7516308E-2],"split_indices":[3,1,7,9,2,6,6,6,7,3,6,2,7,9,7,0,0,0,0,0,0,0,0,0,0,0,0,0,0,0,0],"split_type":[0,0,0,0,0,0,0,0,0,0,0,0,0,0,0,0,0,0,0,0,0,0,0,0,0,0,0,0,0,0,0],"sum_hessian":[3.1910884E5,6.2187156E4,2.5692169E5,1.3992277E4,4.819488E4,1.619095E5,9.50122E4,6.9590454E3,7.033232E3,2.8952312E4,1.9242566E4,8.885892E4,7.305057E4,2.1470973E4,7.354123E4,3.9203066E3,3.0387388E3,6.939671E3,9.356109E1,2.3607125E4,5.345189E3,5.510309E3,1.3732257E4,6.604379E4,2.281513E4,5.6025754E4,1.7024818E4,1.5811619E4,5.659353E3,1.5177146E4,5.8364082E4],"tree_param":{"num_deleted":"0","num_feature":"10","num_nodes":"31","size_leaf_vector":"1"}},{"base_weights":[1.8685097E-2,9.097567E-1,-1.7984848E-1,2.726642E-1,1.0769123E0,5.5753212E-2,-8.066366E-1,-1.7698087E-1,1.1058679E0,1.2089903E0,-2.7116093E-1,-1.343162E-1,4.5064583E-1,-9.3466204E-1,3.1294215E-2,-4.5047212E-2,2.8488442E-2,7.263674E-2,2.9092375E-2,3.947733E-2,6.617816E-2,-5.008942E-2,9.217245E-3,1.4309498E-2,-2.1938203E-2,3.554822E-2,5.862424E-3,-5.1143415E-2,-8.843108E-3,3.559718E-2,-1.4772161E-2],"categories":[],"categories_nodes":[],"categories_segments":[],"categories_sizes":[],"default_left":[0,0,0,0,0,0,0,0,0,0,0,0,0,0,0,0,0,0,0,0,0,0,0,0,0,0,0,0,0,0,0],"id":4,"left_children":[1,3,5,7,9,11,13,15,17,19,21,23,25,27,29,-1,-1,-1,-1,-1,-1,-1,-1,-1,-1,-1,-1,-1,-1,-1,-1],"loss_changes":[5.729874E4,6.2844297E3,3.911485E4,4.5960093E3,8.324031E3,1.4449552E4,7.7628867E3,4.308316E3,7.807119E2,2.0451094E3,1.3887681E3,1.6638102E4,5.4288525E3,4.1956875E3,2.1333643E3,0E0,0E0,0E0,0E0,0E0,0E0,0E0,0E0,0E0,0E0,0E0,0E0,0E0,0E0,0E0,0E0],"parents":[2147483647,0,0,1,1,2,2,3,3,4,4,5,5,6,6,7,7,8,8,9,9,10,10,11,11,12,12,13,13,14,14],"right_children":[2,4,6,8,10,12,14,16,18,20,22,24,26,28,30,-1,-1,-1,-1,-1,-1,-1,-1,-1,-1,-1,-1,-1,-1,-1,-1],"split_conditions":[5.9313345E-1,4.8428002E-1,3.295646E-1,2.977752E0,1.0313793E0,2.2949133E1,8.373227E0,9.95364E-1,1.2614621E-3,2.8882287E-2,6.0228866E-1,5.630474E-2,4.4004807E1,1.3137772E2,1.8712634E0,-4.5047212E-2,2.8488442E-2,7.263674E-2,2.9092375E-2,3.947733E-2,6.617816E-2,-5.008942E-2,9.217245E-3,1.4309498E-2,-2.1938203E-2,3.554822E-2,5.862424E-3,-5.1143415E-2,-8.843108E-3,3.559718E-2,-1.4772161E-2],"split_indices":[2,2,4,0,4,5,5,7,8,1,0,5,2,1,2,0,0,0,0,0,0,0,0,0,0,0,0,0,0,0,0],"split_type":[0,0,0,0,0,0,0,0,0,0,0,0,0,0,0,0,0,0,0,0,0,0,0,0,0,0,0,0,0,0,0],"sum_hessian":[3.2388878E5,5.9014113E4,2.6487466E5,1.2266086E4,4.6748027E4,1.9251255E5,7.236211E4,7.967271E3,4.2988145E3,4.2576664E4,4.1713623E3,1.2996065E5,6.2551902E4,6.2771316E4,9.590796E3,4.0452507E3,3.9220203E3,2.5855674E3,1.713247E3,9.136482E3,3.344018E4,1.6014504E3,2.569912E3,5.4577613E4,7.538304E4,3.5124984E4,2.7426918E4,5.6226344E4,6.5449707E3,3.1103115E3,6.4804844E3],"tree_param":{"num_deleted":"0","num_feature":"10","num_nodes":"31","size_leaf_vector":"1"}},{"base_weights":[4.288369E-4,8.457068E-1,-3.0319402E-1,1.0351899E0,4.8066303E-1,-5.8744943E-1,2.4079353E-1,1.228224E0,5.18871E-1,-2.6015704E-2,9.431293E-1,-9.173167E-2,-8.3219E-1,-2.323181E-1,4.0066946E-1,7.0064835E-2,5.7015803E-2,-1.0404643E-1,2.8528422E-2,-3.791472E-2,7.2242618E-3,3.873487E-2,7.362317E-2,-1.91713E-2,3.7874043E-2,-4.8419323E-2,-9.412871E-3,-2.5401175E-2,3.294972E-3,2.211642E-2,-1.304777E-2],"categories":[],"categories_nodes":[],"categories_segments":[],"categories_sizes":[],"default_left":[0,0,0,0,0,0,0,0,0,0,0,0,0,0,0,0,0,0,0,0,0,0,0,0,0,0,0,0,0,0,0],"id":5,"left_children":[1,3,5,7,9,11,13,15,17,19,21,23,25,27,29,-1,-1,-1,-1,-1,-1,-1,-1,-1,-1,-1,-1,-1,-1,-1,-1],"loss_changes":[8.212714E4,5.8490156E3,3.6405664E4,5.5478164E3,6.771652E3,1.8760324E4,6.111921E3,6.148906E2,2.0375298E3,1.7219994E3,1.3458955E3,1.2661085E4,9.078883E3,1.6780808E3,1.6647383E3,0E0,0E0,0E0,0E0,0E0,0E0,0E0,0E0,0E0,0E0,0E0,0E0,0E0,0E0,0E0,0E0],"parents":[2147483647,0,0,1,1,2,2,3,3,4,4,5,5,6,6,7,7,8,8,9,9,10,10,11,11,12,12,13,13,14,14],"right_children":[2,4,6,8,10,12,14,16,18,20,22,24,26,28,30,-1,-1,-1,-1,-1,-1,-1,-1,-1,-1,-1,-1,-1,-1,-1,-1],"split_conditions":[2.6762334E-1,-7.843303E-1,9.862069E0,3.7362928E0,2.1602963E-1,7.703064E-2,9.636554E-1,5.630474E-2,5.0468993E0,-4.281315E0,9.322831E0,5.390259E-1,4.459619E1,3.652011E1,1.7628938E2,7.0064835E-2,5.7015803E-2,-1.0404643E-1,2.8528422E-2,-3.791472E-2,7.2242618E-3,3.873487E-2,7.362317E-2,-1.91713E-2,3.7874043E-2,-4.8419323E-2,-9.412871E-3,-2.5401175E-2,3.294972E-3,2.211642E-2,-1.304777E-2],"split_indices":[3,3,5,2,0,4,7,5,2,9,5,9,0,5,7,0,0,0,0,0,0,0,0,0,0,0,0,0,0,0,0],"split_type":[0,0,0,0,0,0,0,0,0,0,0,0,0,0,0,0,0,0,0,0,0,0,0,0,0,0,0,0,0,0,0],"sum_hessian":[3.1999997E5,8.45667E4,2.3543325E5,5.566887E4,2.8897832E4,1.5463183E5,8.080143E4,4.051886E4,1.5150012E4,1.3790206E4,1.5107627E4,5.111026E4,1.0352156E5,2.040819E4,6.039324E4,1.3643217E4,2.6875643E4,2.9462158E2,1.4855391E4,2.6037976E3,1.1186408E4,1.1462705E4,3.6449219E3,3.8043367E4,1.3066892E4,8.544815E4,1.8073412E4,1.0603984E4,9.804205E3,5.681616E4,3.5770771E3],"tree_param":{"num_deleted":"0","num_feature":"10","num_nodes":"31","size_leaf_vector":"1"}},{"base_weights":[-1.4871279E-3,8.025651E-1,-2.861962E-1,9.73186E-1,3.8350618E-1,-5.0101465E-1,2.896967E-1,1.1577697E0,4.2693874E-1,-2.445691E-2,7.1914315E-1,-2.718334E-1,-8.488133E-1,4.9098462E-1,-2.0209989E-2,5.1281597E-2,6.4672135E-2,6.006905E-3,4.3529507E-2,1.9186962E-3,-9.487387E-2,2.9254336E-2,6.692772E-2,6.663875E-3,-3.085092E-2,-6.8213485E-2,-3.231981E-2,-1.0342433E-1,2.5444498E-2,-1.860313E-2,1.2833613E-2],"categories":[],"categories_nodes":[],"categories_segments":[],"categories_sizes":[],"default_left":[0,0,0,0,0,0,0,0,0,0,0,0,0,0,0,0,0,0,0,0,0,0,0,0,0,0,0,0,0,0,0],"id":6,"left_children":[1,3,5,7,9,11,13,15,17,19,21,23,25,27,29,-1,-1,-1,-1,-1,-1,-1,-1,-1,-1,-1,-1,-1,-1,-1,-1],"loss_changes":[7.2993305E4,5.961371E3,2.9131615E4,5.9740234E3,3.3037314E3,1.3670152E4,3.9907695E3,7.9264844E2,2.0371272E3,1.2818014E3,1.0983774E3,1.4456906E4,7.1068047E3,1.7784541E3,2.4543005E3,0E0,0E0,0E0,0E0,0E0,0E0,0E0,0E0,0E0,0E0,0E0,0E0,0E0,0E0,0E0,0E0],"parents":[2147483647,0,0,1,1,2,2,3,3,4,4,5,5,6,6,7,7,8,8,9,9,10,10,11,11,12,12,13,13,14,14],"right_children":[2,4,6,8,10,12,14,16,18,20,22,24,26,28,30,-1,-1,-1,-1,-1,-1,-1,-1,-1,-1,-1,-1,-1,-1,-1,-1],"split_conditions":[2.6762334E-1,-2.9846698E-1,1.6132992E1,4.0824485E0,9.648946E-2,3.295646E-1,3.0373678E1,5.166181E-1,5.0465014E-2,5.598643E-2,9.322831E0,5.630474E-2,1.4733598E0,-5.9780145E0,1.5347668E2,5.1281597E-2,6.4672135E-2,6.006905E-3,4.3529507E-2,1.9186962E-3,-9.487387E-2,2.9254336E-2,6.692772E-2,6.663875E-3,-3.085092E-2,-6.8213485E-2,-3.231981E-2,-1.0342433E-1,2.5444498E-2,-1.860313E-2,1.2833613E-2],"split_indices":[3,3,5,2,0,4,3,9,0,0,5,5,9,9,5,0,0,0,0,0,0,0,0,0,0,0,0,0,0,0,0],"split_type":[0,0,0,0,0,0,0,0,0,0,0,0,0,0,0,0,0,0,0,0,0,0,0,0,0,0,0,0,0,0,0],"sum_hessian":[3.188561E5,8.337981E4,2.354763E5,5.925334E4,2.412647E4,1.7150278E5,6.397351E4,4.4287074E4,1.4966265E4,1.0890324E4,1.32361455E4,1.033815E5,6.812128E4,3.8782957E4,2.5190555E4,2.244018E4,2.1846895E4,8.84849E3,6.117774E3,1.0537812E4,3.5251343E2,1.0882779E4,2.3533667E3,4.756251E4,5.581899E4,1.9206377E4,4.8914906E4,2.686345E2,3.8514324E4,1.1093265E4,1.409729E4],"tree_param":{"num_deleted":"0","num_feature":"10","num_nodes":"31","size_leaf_vector":"1"}},{"base_weights":[8.03476E-3,8.3099514E-1,-2.5787643E-1,2.400783E-1,1.0016894E0,-5.073973E-1,2.5457615E-1,4.5029655E-1,-6.1920595E-1,1.1289972E0,6.5614474E-1,-2.4806988E-1,-7.7977073E-1,-5.096802E-2,4.0925848E-1,-1.6965698E-2,3.283572E-2,-8.210809E-2,1.1684442E-3,5.9019744E-2,1.2921642E-2,5.6777883E-2,1.921347E-2,-2.090616E-2,2.5102526E-2,-5.072552E-2,-1.7574023E-2,1.1257633E-2,-1.1889603E-2,4.897047E-2,1.7829744E-2],"categories":[],"categories_nodes":[],"categories_segments":[],"categories_sizes":[],"default_left":[0,0,0,0,0,0,0,0,0,0,0,0,0,0,0,0,0,0,0,0,0,0,0,0,0,0,0,0,0,0,0],"id":7,"left_children":[1,3,5,7,9,11,13,15,17,19,21,23,25,27,29,-1,-1,-1,-1,-1,-1,-1,-1,-1,-1,-1,-1,-1,-1,-1,-1],"loss_changes":[6.9828234E4,7.8597344E3,3.083758E4,3.1552925E3,2.658914E3,1.1456141E4,3.7325508E3,2.2875425E3,2.2569595E3,1.9765508E3,2.1215303E3,1.0598935E4,7.9527305E3,1.3693701E3,1.5739678E3,0E0,0E0,0E0,0E0,0E0,0E0,0E0,0E0,0E0,0E0,0E0,0E0,0E0,0E0,0E0,0E0],"parents":[2147483647,0,0,1,1,2,2,3,3,4,4,5,5,6,6,7,7,8,8,9,9,10,10,11,11,12,12,13,13,14,14],"right_children":[2,4,6,8,10,12,14,16,18,20,22,24,26,28,30,-1,-1,-1,-1,-1,-1,-1,-1,-1,-1,-1,-1,-1,-1,-1,-1],"split_conditions":[2.478309E-2,2.6932845E-2,1.0820269E1,1.0051681E-2,-7.843303E-1,5.630474E-2,9.8405945E-1,4.8428002E-1,1.471339E-1,7.418169E1,2.6020408E-3,2.787305E1,4.399013E0,1.0051681E-2,1.0246633E0,-1.6965698E-2,3.283572E-2,-8.210809E-2,1.1684442E-3,5.9019744E-2,1.2921642E-2,5.6777883E-2,1.921347E-2,-2.090616E-2,2.5102526E-2,-5.072552E-2,-1.7574023E-2,1.1257633E-2,-1.1889603E-2,4.897047E-2,1.7829744E-2],"split_indices":[3,1,5,0,3,5,7,2,6,2,6,2,5,0,3,0,0,0,0,0,0,0,0,0,0,0,0,0,0,0,0],"split_type":[0,0,0,0,0,0,0,0,0,0,0,0,0,0,0,0,0,0,0,0,0,0,0,0,0,0,0,0,0,0,0],"sum_hessian":[3.1908975E5,7.7923766E4,2.4116598E5,1.746502E4,6.0458742E4,1.6219219E5,7.8973805E4,1.4032529E4,3.4324902E3,4.4179566E4,1.6279177E4,8.308686E4,7.910532E4,2.6543357E4,5.243045E4,2.9079807E3,1.1124549E4,1.3236815E3,2.1088088E3,4.17163E4,2.4632659E3,5.8899404E3,1.0389236E4,6.7732305E4,1.5354562E4,5.109792E4,2.8007395E4,1.0711644E4,1.5831714E4,4.431899E3,4.799855E4],"tree_param":{"num_deleted":"0","num_feature":"10","num_nodes":"31","size_leaf_vector":"1"}},{"base_weights":[-1.8900933E-2,7.8445584E-1,-2.7717394E-1,1.1541681E0,6.295923E-1,-6.8937056E-3,-6.2256855E-1,1.1636335E0,-1.04441896E-1,-1.5545602E-1,9.115611E-1,-2.578556E-1,4.2902076E-1,-9.43921E-1,-2.2993627E-1,5.1828362E-2,6.7123435E-2,-5.0835032E-2,3.5897647E-3,-1.6775565E-2,4.8945673E-2,-1.7828525E-3,-2.9441804E-2,3.7978183E-2,1.4220022E-2,-5.981738E-2,-1.8506456E-2,4.019856E-3,-3.7246387E-2],"categories":[],"categories_nodes":[],"categories_segments":[],"categories_sizes":[],"default_left":[0,0,0,0,0,0,0,0,0,0,0,0,0,0,0,0,0,0,0,0,0,0,0,0,0,0,0,0,0],"id":8,"left_children":[1,3,5,7,9,11,13,15,-1,17,19,21,23,25,27,-1,-1,-1,-1,-1,-1,-1,-1,-1,-1,-1,-1,-1,-1],"loss_changes":[6.505637E4,4.3666562E3,2.2149678E4,6.936387E2,1.1901025E4,1.456188E4,1.3141984E4,5.0882617E2,0E0,2.7808772E3,3.3227344E3,6.2125967E3,2.3246338E3,8.295863E3,7.4926836E3,0E0,0E0,0E0,0E0,0E0,0E0,0E0,0E0,0E0,0E0,0E0,0E0,0E0,0E0],"parents":[2147483647,0,0,1,1,2,2,3,3,4,4,5,5,6,6,7,7,9,9,10,10,11,11,12,12,13,13,14,14],"right_children":[2,4,6,8,10,12,14,16,-1,18,20,22,24,26,28,-1,-1,-1,-1,-1,-1,-1,-1,-1,-1,-1,-1,-1,-1],"split_conditions":[2.478309E-2,2.6020408E-3,1.6412532E-1,2.5266368E0,2.6888695E-1,1.0989127E0,5.1151414E0,1.9841969E0,-1.04441896E-1,-5.9780145E0,9.4481784E-1,3.1485714E-2,2.3991482E-2,1.2602202E0,1.0067228E0,5.1828362E-2,6.7123435E-2,-5.0835032E-2,3.5897647E-3,-1.6775565E-2,4.8945673E-2,-1.7828525E-3,-2.9441804E-2,3.7978183E-2,1.4220022E-2,-5.981738E-2,-1.8506456E-2,4.019856E-3,-3.7246387E-2],"split_indices":[3,6,4,4,6,9,9,9,0,9,7,4,6,6,4,0,0,0,0,0,0,0,0,0,0,0,0,0,0],"split_type":[0,0,0,0,0,0,0,0,0,0,0,0,0,0,0,0,0,0,0,0,0,0,0,0,0,0,0,0,0],"sum_hessian":[3.1354475E5,7.627859E4,2.3726617E5,2.2516805E4,5.3761785E4,1.3310728E5,1.0415888E5,2.2451916E4,6.488886E1,1.4207148E4,3.9554637E4,8.447455E4,4.8632742E4,5.7277957E4,4.688092E4,1.3129749E4,9.322167E3,2.9653796E3,1.1241769E4,2.0266122E3,3.7528023E4,5.054384E4,3.3930707E4,1.4800531E4,3.3832207E4,3.977762E4,1.7500338E4,2.9253582E4,1.7627338E4],"tree_param":{"num_deleted":"0","num_feature":"10","num_nodes":"29","size_leaf_vector":"1"}},{"base_weights":[1.0785871E-2,7.4550456E-1,-2.2560966E-1,3.877496E-1,9.608075E-1,-3.950346E-1,6.0514044E-2,5.7820195E-1,-1.438754E-1,1.1203736E0,7.3455715E-1,-5.2199876E-1,3.8220152E-2,-3.2502377E-1,1.9328469E-1,4.386215E-2,6.3827015E-3,-1.9729184E-3,-1.04791954E-1,5.8902204E-2,5.1478557E-3,1.8357595E-2,5.0412077E-2,-3.5594713E-2,-7.720423E-3,1.3545359E-2,-2.2117821E-2,-5.396599E-3,-4.8972387E-2,-1.0015248E-2,1.634298E-2],"categories":[],"categories_nodes":[],"categories_segments":[],"categories_sizes":[],"default_left":[0,0,0,0,0,0,0,0,0,0,0,0,0,0,0,0,0,0,0,0,0,0,0,0,0,0,0,0,0,0,0],"id":9,"left_children":[1,3,5,7,9,11,13,15,17,19,21,23,25,27,29,-1,-1,-1,-1,-1,-1,-1,-1,-1,-1,-1,-1,-1,-1,-1,-1],"loss_changes":[5.501663E4,5.9389688E3,1.16176045E4,2.9334814E3,1.7370352E3,8.279982E3,4.5625366E3,2.8738198E3,1.5575693E3,1.6560898E3,2.0018066E3,8.12574E3,3.814939E3,3.2436992E3,3.4857063E3,0E0,0E0,0E0,0E0,0E0,0E0,0E0,0E0,0E0,0E0,0E0,0E0,0E0,0E0,0E0,0E0],"parents":[2147483647,0,0,1,1,2,2,3,3,4,4,5,5,6,6,7,7,8,8,9,9,10,10,11,11,12,12,13,13,14,14],"right_children":[2,4,6,8,10,12,14,16,18,20,22,24,26,28,30,-1,-1,-1,-1,-1,-1,-1,-1,-1,-1,-1,-1,-1,-1,-1,-1],"split_conditions":[7.550807E-2,1.1163076E-1,9.783024E-1,-7.843303E-1,-2.0642276E0,7.1887283E0,5.08813E-1,3.3397195E0,2.2321452E-1,5.0115433E1,9.908194E-1,2.0873413E1,1.6517755E0,9.551333E-2,1.651957E-1,4.386215E-2,6.3827015E-3,-1.9729184E-3,-1.04791954E-1,5.8902204E-2,5.1478557E-3,1.8357595E-2,5.0412077E-2,-3.5594713E-2,-7.720423E-3,1.3545359E-2,-2.2117821E-2,-5.396599E-3,-4.8972387E-2,-1.0015248E-2,1.634298E-2],"split_indices":[3,1,7,3,3,9,6,2,0,2,9,2,8,9,1,0,0,0,0,0,0,0,0,0,0,0,0,0,0,0,0],"split_type":[0,0,0,0,0,0,0,0,0,0,0,0,0,0,0,0,0,0,0,0,0,0,0,0,0,0,0,0,0,0,0],"sum_hessian":[3.1676044E5,7.710756E4,2.3965289E5,2.8971049E4,4.813651E4,1.5052238E5,8.9130516E4,2.1329691E4,7.6413574E3,2.8225879E4,1.9910633E4,1.1640886E5,3.411351E4,2.2831432E4,6.6299086E4,1.2819855E4,8.509836E3,7.2543203E3,3.870375E2,2.671162E4,1.5142592E3,8.500948E3,1.1409684E4,7.675608E4,3.965278E4,2.2985002E4,1.1128512E4,1.714507E4,5.6863623E3,1.679898E4,4.9500105E4],"tree_param":{"num_deleted":"0","num_feature":"10","num_nodes":"31","size_leaf_vector":"1"}},{"base_weights":[1.9524097E-2,8.214001E-1,-1.7272747E-1,2.7380222E-1,9.754684E-1,-3.6105323E-1,2.2163953E-1,5.391023E-1,-6.458544E-1,8.399283E-1,1.1640788E0,-1.0016444E-1,-6.951497E-1,-6.3361935E-2,4.7522044E-1,4.8433237E-2,1.8096022E-2,-8.25747E-2,1.1258567E-3,4.285451E-2,-1.3050495E-1,5.9766807E-2,2.7892927E-2,-1.5177553E-2,1.5156835E-2,-6.8813756E-2,-2.9235383E-2,-7.636792E-2,-8.0048677E-4,2.8586416E-2,7.6708863E-3],"categories":[],"categories_nodes":[],"categories_segments":[],"categories_sizes":[],"default_left":[0,0,0,0,0,0,0,0,0,0,0,0,0,0,0,0,0,0,0,0,0,0,0,0,0,0,0,0,0,0,0],"id":10,"left_children":[1,3,5,7,9,11,13,15,17,19,21,23,25,27,29,-1,-1,-1,-1,-1,-1,-1,-1,-1,-1,-1,-1,-1,-1,-1,-1],"loss_changes":[4.8852008E4,5.1699375E3,1.8983781E4,3.283747E3,1.2216523E3,1.5078488E4,5.9704873E3,7.946218E2,2.0254868E3,1.6501055E3,3.782168E2,7.968199E3,5.705332E3,2.6964631E3,1.3575762E3,0E0,0E0,0E0,0E0,0E0,0E0,0E0,0E0,0E0,0E0,0E0,0E0,0E0,0E0,0E0,0E0],"parents":[2147483647,0,0,1,1,2,2,3,3,4,4,5,5,6,6,7,7,8,8,9,9,10,10,11,11,12,12,13,13,14,14],"right_children":[2,4,6,8,10,12,14,16,18,20,22,24,26,28,30,-1,-1,-1,-1,-1,-1,-1,-1,-1,-1,-1,-1,-1,-1,-1,-1],"split_conditions":[-1.437874E-3,3.0887567E-2,9.672099E0,1.0051681E-2,2.6333666E-1,5.630474E-2,1.026838E0,1.471155E-1,9.761963E-3,6.33173E-2,-2.9846698E-1,5.219303E0,2.4440433E-1,-3.5112965E0,6.224996E1,4.8433237E-2,1.8096022E-2,-8.25747E-2,1.1258567E-3,4.285451E-2,-1.3050495E-1,5.9766807E-2,2.7892927E-2,-1.5177553E-2,1.5156835E-2,-6.8813756E-2,-2.9235383E-2,-7.636792E-2,-8.0048677E-4,2.8586416E-2,7.6708863E-3],"split_indices":[3,1,5,0,9,5,7,5,1,9,3,9,5,9,3,0,0,0,0,0,0,0,0,0,0,0,0,0,0,0,0],"split_type":[0,0,0,0,0,0,0,0,0,0,0,0,0,0,0,0,0,0,0,0,0,0,0,0,0,0,0,0,0,0,0],"sum_hessian":[3.1688572E5,6.128101E4,2.5560472E5,1.3456381E4,4.7824633E4,1.7299356E5,8.261115E4,1.0443951E4,3.0124297E3,2.7830451E4,1.9994182E4,9.714018E4,7.5853375E4,3.8896188E4,4.3714965E4,3.0485452E3,7.395406E3,1.2021659E3,1.8102638E3,2.7693443E4,1.3700685E2,1.9012889E4,9.8129224E2,6.4574977E4,3.2565207E4,1.058171E4,6.5271668E4,1.2176807E3,3.7678508E4,3.3628945E4,1.0086018E4],"tree_param":{"num_deleted":"0","num_feature":"10","num_nodes":"31","size_leaf_vector":"1"}},{"base_weights":[3.873408E-3,6.7021716E-1,-2.287429E-1,2.3331112E-1,8.3040273E-1,-4.2038E-2,-7.678531E-1,-1.052564E-3,5.2282333E-1,1.0174687E0,5.850672E-1,-2.0599943E-1,2.5589526E-1,-8.7791777E-1,4.107478E-2,1.3181031E-2,-5.7817724E-2,2.9789567E-2,-9.275498E-2,3.7522715E-2,5.5356115E-2,1.6038915E-2,4.7536023E-2,7.292304E-3,-2.5182763E-2,-5.170539E-4,2.3879431E-2,-5.1457237E-2,-1.3208267E-2,9.947865E-3,-5.7814427E-2],"categories":[],"categories_nodes":[],"categories_segments":[],"categories_sizes":[],"default_left":[0,0,0,0,0,0,0,0,0,0,0,0,0,0,0,0,0,0,0,0,0,0,0,0,0,0,0,0,0,0,0],"id":11,"left_children":[1,3,5,7,9,11,13,15,17,19,21,23,25,27,29,-1,-1,-1,-1,-1,-1,-1,-1,-1,-1,-1,-1,-1,-1,-1,-1],"loss_changes":[4.8620723E4,5.68041E3,2.340311E4,1.4775775E3,2.7251328E3,8.436427E3,5.3251367E3,3.6805159E3,1.6914878E3,8.058164E2,2.482957E3,1.1666549E4,3.6184087E3,4.8861523E3,1.3545586E3,0E0,0E0,0E0,0E0,0E0,0E0,0E0,0E0,0E0,0E0,0E0,0E0,0E0,0E0,0E0,0E0],"parents":[2147483647,0,0,1,1,2,2,3,3,4,4,5,5,6,6,7,7,8,8,9,9,10,10,11,11,12,12,13,13,14,14],"right_children":[2,4,6,8,10,12,14,16,18,20,22,24,26,28,30,-1,-1,-1,-1,-1,-1,-1,-1,-1,-1,-1,-1,-1,-1,-1,-1],"split_conditions":[2.6762334E-1,4.3608773E-2,4.064391E-1,2.3385936E-1,-2.0642276E0,1.6875675E1,1.3137772E2,5.298456E-2,7.550807E-2,1.7238466E-2,1.9913607E0,5.630474E-2,1.024465E0,5.154827E0,2.3072505E0,1.3181031E-2,-5.7817724E-2,2.9789567E-2,-9.275498E-2,3.7522715E-2,5.5356115E-2,1.6038915E-2,4.7536023E-2,7.292304E-3,-2.5182763E-2,-5.170539E-4,2.3879431E-2,-5.1457237E-2,-1.3208267E-2,9.947865E-3,-5.7814427E-2],"split_indices":[3,1,4,6,3,5,1,8,3,4,0,5,7,5,4,0,0,0,0,0,0,0,0,0,0,0,0,0,0,0,0],"split_type":[0,0,0,0,0,0,0,0,0,0,0,0,0,0,0,0,0,0,0,0,0,0,0,0,0,0,0,0,0,0,0],"sum_hessian":[3.136752E5,8.11666E4,2.3250861E5,2.177574E4,5.939086E4,1.727001E5,5.9808504E4,1.2034589E4,9.74115E3,3.369534E4,2.5695516E4,1.11395945E5,6.1304152E4,5.2645367E4,7.1631396E3,9.792056E3,2.2425332E3,9.451864E3,2.8928668E2,8.472162E3,2.522318E4,1.49161875E4,1.0779329E4,5.105117E4,6.0344773E4,2.7854291E4,3.3449863E4,4.223748E4,1.0407885E4,6.3293896E3,8.3375E2],"tree_param":{"num_deleted":"0","num_feature":"10","num_nodes":"31","size_leaf_vector":"1"}},{"base_weights":[1.2862122E-3,7.947784E-1,-1.7697762E-1,3.4645626E-1,9.2759424E-1,6.815997E-2,-5.125472E-1,5.768581E-1,-4.9429238E-1,7.321217E-1,1.0130051E0,-1.1350288E-1,4.0795052E-1,1.4360204E-1,-6.3297915E-1,5.4834276E-2,1.6229598E-2,-5.487172E-2,2.0535452E-2,4.091643E-2,-6.748774E-2,5.10355E-2,-1.2414458E-1,-1.8972136E-2,1.05075715E-2,3.4268077E-2,9.785188E-3,-1.4135557E-2,3.4862064E-2,-3.6253925E-2,4.2323614E-3],"categories":[],"categories_nodes":[],"categories_segments":[],"categories_sizes":[],"default_left":[0,0,0,0,0,0,0,0,0,0,0,0,0,0,0,0,0,0,0,0,0,0,0,0,0,0,0,0,0,0,0],"id":12,"left_children":[1,3,5,7,9,11,13,15,17,19,21,23,25,27,29,-1,-1,-1,-1,-1,-1,-1,-1,-1,-1,-1,-1,-1,-1,-1,-1],"loss_changes":[4.4088E4,3.4042344E3,2.093597E4,2.5318916E3,7.356719E2,9.078362E3,8.489893E3,1.3448777E3,1.5351793E3,2.408936E3,8.2928516E2,8.248903E3,3.0166562E3,3.9328452E3,5.9996875E3,0E0,0E0,0E0,0E0,0E0,0E0,0E0,0E0,0E0,0E0,0E0,0E0,0E0,0E0,0E0,0E0],"parents":[2147483647,0,0,1,1,2,2,3,3,4,4,5,5,6,6,7,7,8,8,9,9,10,10,11,11,12,12,13,13,14,14],"right_children":[2,4,6,8,10,12,14,16,18,20,22,24,26,28,30,-1,-1,-1,-1,-1,-1,-1,-1,-1,-1,-1,-1,-1,-1,-1,-1],"split_conditions":[-2.9846698E-1,2.6932845E-2,1.5765958E-1,1.0051681E-2,1.7473881E-1,9.725309E-1,6.7969346E-1,1.471155E-1,4.5736527E-1,-1.119354E0,1.4539765E0,9.636554E-1,1.5301724E-2,9.8641557E-1,1.3137772E2,5.4834276E-2,1.6229598E-2,-5.487172E-2,2.0535452E-2,4.091643E-2,-6.748774E-2,5.10355E-2,-1.2414458E-1,-1.8972136E-2,1.05075715E-2,3.4268077E-2,9.785188E-3,-1.4135557E-2,3.4862064E-2,-3.6253925E-2,4.2323614E-3],"split_indices":[3,1,4,0,1,0,3,5,6,3,4,7,6,7,1,0,0,0,0,0,0,0,0,0,0,0,0,0,0,0,0],"split_type":[0,0,0,0,0,0,0,0,0,0,0,0,0,0,0,0,0,0,0,0,0,0,0,0,0,0,0,0,0,0,0],"sum_hessian":[3.1168197E5,5.717588E4,2.545061E5,1.3068052E4,4.410783E4,1.4707028E5,1.0743581E5,1.0257393E4,2.8106594E3,1.3415189E4,3.069264E4,9.583468E4,5.12356E4,1.6661088E4,9.077473E4,3.3503044E3,6.9070874E3,1.686483E3,1.1241765E3,1.288236E4,5.3282916E2,3.062585E4,6.679082E1,5.26078E4,4.322688E4,2.2207586E4,2.9028018E4,9.413216E3,7.247873E3,8.0449875E4,1.0324848E4],"tree_param":{"num_deleted":"0","num_feature":"10","num_nodes":"31","size_leaf_vector":"1"}},{"base_weights":[1.1009101E-2,5.836428E-1,-2.1225849E-1,1.4527997E-1,7.171982E-1,-2.8964896E-2,-6.707348E-1,3.39178E-1,-6.764942E-1,9.370684E-1,4.813213E-1,-1.9487442E-1,2.1002042E-1,-5.198169E-1,-1.1007196E0,1.9495634E-2,-8.7131895E-2,-7.007782E-2,-3.0898608E-3,5.005872E-2,1.1010134E-2,1.3887378E-2,4.408177E-2,5.737807E-3,-2.4009967E-2,-1.7028486E-2,1.6044332E-2,-3.3465397E-2,4.9710935E-3,-6.2463816E-2,-4.896335E-3],"categories":[],"categories_nodes":[],"categories_segments":[],"categories_sizes":[],"default_left":[0,0,0,0,0,0,0,0,0,0,0,0,0,0,0,0,0,0,0,0,0,0,0,0,0,0,0,0,0,0,0],"id":13,"left_children":[1,3,5,7,9,11,13,15,17,19,21,23,25,27,29,-1,-1,-1,-1,-1,-1,-1,-1,-1,-1,-1,-1,-1,-1,-1,-1],"loss_changes":[3.981525E4,5.114457E3,1.882905E4,3.2510542E3,3.4722188E3,6.346736E3,4.15208E3,1.7442166E3,1.7359589E3,1.5923379E3,2.6324712E3,8.346854E3,4.0038406E3,4.3850947E3,2.4764434E3,0E0,0E0,0E0,0E0,0E0,0E0,0E0,0E0,0E0,0E0,0E0,0E0,0E0,0E0,0E0,0E0],"parents":[2147483647,0,0,1,1,2,2,3,3,4,4,5,5,6,6,7,7,8,8,9,9,10,10,11,11,12,12,13,13,14,14],"right_children":[2,4,6,8,10,12,14,16,18,20,22,24,26,28,30,-1,-1,-1,-1,-1,-1,-1,-1,-1,-1,-1,-1,-1,-1,-1,-1],"split_conditions":[5.464722E-1,2.6932845E-2,3.295646E-1,1.0051681E-2,-2.0642276E0,4.4155073E-1,1.3735026E0,3.9741635E-1,8.74158E0,5.7535378E1,3.885829E0,2.6020408E-3,9.4481784E-1,5.400082E0,1.3137772E2,1.9495634E-2,-8.7131895E-2,-7.007782E-2,-3.0898608E-3,5.005872E-2,1.1010134E-2,1.3887378E-2,4.408177E-2,5.737807E-3,-2.4009967E-2,-1.7028486E-2,1.6044332E-2,-3.3465397E-2,4.9710935E-3,-6.2463816E-2,-4.896335E-3],"split_indices":[3,1,4,0,3,6,4,3,2,2,0,6,7,6,1,0,0,0,0,0,0,0,0,0,0,0,0,0,0,0,0],"split_type":[0,0,0,0,0,0,0,0,0,0,0,0,0,0,0,0,0,0,0,0,0,0,0,0,0,0,0,0,0,0,0],"sum_hessian":[3.114183E5,8.735914E4,2.2405916E5,2.0400762E4,6.695838E4,1.6006719E5,6.399196E4,1.6506607E4,3.8941553E3,3.4653504E4,3.2304879E4,9.447824E4,6.558895E4,4.7368547E4,1.6623416E4,1.6114698E4,3.9190875E2,1.7860961E3,2.108059E3,3.1808613E4,2.8448906E3,2.1415857E4,1.08890205E4,4.5309555E4,4.916869E4,1.0992968E4,5.4595984E4,3.815696E4,9.211588E3,1.447831E4,2.1451062E3],"tree_param":{"num_deleted":"0","num_feature":"10","num_nodes":"31","size_leaf_vector":"1"}},{"base_weights":[2.3400228E-2,6.0821956E-1,-1.7967343E-1,3.4996548E-1,7.68595E-1,1.1118216E-2,-6.052601E-1,5.7815945E-1,-1.3536023E-1,6.193597E-1,9.441656E-1,-1.7793433E-1,3.60927E-1,-9.745616E-1,-2.9733437E-1,4.0537562E-2,7.297096E-3,-2.8939378E-3,-1.0083961E-1,3.7636984E-2,1.3151939E-2,5.07736E-2,1.5066977E-2,3.2057539E-3,-2.1401113E-2,1.2222427E-2,4.3134004E-2,-5.5447496E-2,-4.199015E-3,-3.6805932E-4,-3.935237E-2],"categories":[],"categories_nodes":[],"categories_segments":[],"categories_sizes":[],"default_left":[0,0,0,0,0,0,0,0,0,0,0,0,0,0,0,0,0,0,0,0,0,0,0,0,0,0,0,0,0,0,0],"id":14,"left_children":[1,3,5,7,9,11,13,15,17,19,21,23,25,27,29,-1,-1,-1,-1,-1,-1,-1,-1,-1,-1,-1,-1,-1,-1,-1,-1],"loss_changes":[3.7114984E4,3.335879E3,1.8835453E4,3.4177593E3,1.3013613E3,1.0592239E4,8.164926E3,2.1100747E3,1.4387292E3,1.2764678E3,1.0461094E3,6.294004E3,3.2838833E3,3.907248E3,5.5603535E3,0E0,0E0,0E0,0E0,0E0,0E0,0E0,0E0,0E0,0E0,0E0,0E0,0E0,0E0,0E0,0E0],"parents":[2147483647,0,0,1,1,2,2,3,3,4,4,5,5,6,6,7,7,8,8,9,9,10,10,11,11,12,12,13,13,14,14],"right_children":[2,4,6,8,10,12,14,16,18,20,22,24,26,28,30,-1,-1,-1,-1,-1,-1,-1,-1,-1,-1,-1,-1,-1,-1,-1,-1],"split_conditions":[2.6762334E-1,1.2648988E-2,2.9970065E-1,-7.843303E-1,1.2544911E0,1.6614745E0,4.325238E0,3.6828566E0,3.7376387E0,-7.843303E-1,7.532508E-1,3.0469097E-2,1.340796E1,2.9321594E0,1.1369416E0,4.0537562E-2,7.297096E-3,-2.8939378E-3,-1.0083961E-1,3.7636984E-2,1.3151939E-2,5.07736E-2,1.5066977E-2,3.2057539E-3,-2.1401113E-2,1.2222427E-2,4.3134004E-2,-5.5447496E-2,-4.199015E-3,-3.6805932E-4,-3.935237E-2],"split_indices":[3,0,4,3,9,9,9,2,8,3,4,4,9,6,4,0,0,0,0,0,0,0,0,0,0,0,0,0,0,0,0],"split_type":[0,0,0,0,0,0,0,0,0,0,0,0,0,0,0,0,0,0,0,0,0,0,0,0,0,0,0,0,0,0,0],"sum_hessian":[3.125153E5,8.0548016E4,2.3196728E5,3.0858867E4,4.9689152E4,1.6016558E5,7.1801695E4,2.0989623E4,9.869245E3,2.6861428E4,2.2827725E4,1.03973875E5,5.619171E4,3.2646236E4,3.915546E4,1.3645573E4,7.3440493E3,9.479874E3,3.8937115E2,1.9544363E4,7.317066E3,2.0547846E4,2.279878E3,5.2836465E4,5.113741E4,4.560607E4,1.0585642E4,2.836563E4,4.2806055E3,2.4593785E4,1.4561675E4],"tree_param":{"num_deleted":"0","num_feature":"10","num_nodes":"31","size_leaf_vector":"1"}},{"base_weights":[-4.7207423E-4,5.3909445E-1,-2.1111438E-1,1.8557987E-1,7.3514175E-1,-3.180104E-2,-6.298057E-1,4.264919E-1,-2.4978061E-1,7.9530436E-1,-1.482711E-1,-1.9239739E-1,2.7639836E-1,-1.0039546E0,-2.7545306E-1,2.3014048E-2,-1.3421877E-1,-2.0811493E-3,-6.413771E-2,5.080509E-2,3.334137E-2,-5.343278E-2,4.8313957E-2,-2.0921102E-2,4.8904754E-3,8.863878E-3,3.5311867E-2,-5.581462E-2,-1.6893286E-2,-1.9002277E-3,-4.1430753E-2],"categories":[],"categories_nodes":[],"categories_segments":[],"categories_sizes":[],"default_left":[0,0,0,0,0,0,0,0,0,0,0,0,0,0,0,0,0,0,0,0,0,0,0,0,0,0,0,0,0,0,0],"id":15,"left_children":[1,3,5,7,9,11,13,15,17,19,21,23,25,27,29,-1,-1,-1,-1,-1,-1,-1,-1,-1,-1,-1,-1,-1,-1,-1,-1],"loss_changes":[3.492032E4,5.9787344E3,1.6590387E4,3.2280186E3,2.9494863E3,7.657963E3,8.784654E3,2.0838413E3,2.3574778E3,1.4731523E3,3.6314893E3,6.6720537E3,2.2581074E3,2.4112793E3,4.47001E3,0E0,0E0,0E0,0E0,0E0,0E0,0E0,0E0,0E0,0E0,0E0,0E0,0E0,0E0,0E0,0E0],"parents":[2147483647,0,0,1,1,2,2,3,3,4,4,5,5,6,6,7,7,8,8,9,9,10,10,11,11,12,12,13,13,14,14],"right_children":[2,4,6,8,10,12,14,16,18,20,22,24,26,28,30,-1,-1,-1,-1,-1,-1,-1,-1,-1,-1,-1,-1,-1,-1,-1,-1],"split_conditions":[5.464722E-1,1.0428734E-1,2.9970065E-1,-7.843303E-1,1.1086794E0,1.6614745E0,5.1151414E0,9.086387E-2,4.225983E-1,2.6020408E-3,1.2330834E1,5.326164E0,1.302118E1,2.9321594E0,1.3735026E0,2.3014048E-2,-1.3421877E-1,-2.0811493E-3,-6.413771E-2,5.080509E-2,3.334137E-2,-5.343278E-2,4.8313957E-2,-2.0921102E-2,4.8904754E-3,8.863878E-3,3.5311867E-2,-5.581462E-2,-1.6893286E-2,-1.9002277E-3,-4.1430753E-2],"split_indices":[3,1,4,3,4,9,9,1,4,6,9,5,9,6,4,0,0,0,0,0,0,0,0,0,0,0,0,0,0,0,0],"split_type":[0,0,0,0,0,0,0,0,0,0,0,0,0,0,0,0,0,0,0,0,0,0,0,0,0,0,0,0,0,0,0],"sum_hessian":[3.0724497E5,8.626726E4,2.209777E5,3.0775145E4,5.5492113E4,1.5471769E5,6.6260016E4,1.9811969E4,1.0963175E4,5.195402E4,3.5380957E3,1.0171597E5,5.300172E4,3.222884E4,3.403118E4,1.9599934E4,2.1203494E2,9.125341E3,1.8378346E3,1.9108207E4,3.2845812E4,1.9378662E3,1.6002295E3,5.7180832E4,4.453514E4,4.307097E4,9.930747E3,2.7577197E4,4.651643E3,2.3811152E4,1.0220027E4],"tree_param":{"num_deleted":"0","num_feature":"10","num_nodes":"31","size_leaf_vector":"1"}},{"base_weights":[-7.670519E-3,5.519384E-1,-1.9990818E-1,3.427657E-1,8.253072E-1,-2.4907198E-2,-5.9452754E-1,8.3838516E-1,1.6086426E-1,9.734099E-1,6.156474E-1,-2.341389E-1,2.820031E-1,-1.0899599E0,-4.0281847E-1,4.3999955E-2,-2.3516739E-2,-1.8307818E-2,2.170779E-2,4.9015332E-2,-1.2590763E-1,2.3516277E-2,5.8054954E-2,-4.549881E-3,-3.1471767E-2,9.554668E-3,4.1414283E-2,-5.8236033E-2,-2.3071108E-2,-1.5060951E-2,-6.8741225E-2],"categories":[],"categories_nodes":[],"categories_segments":[],"categories_sizes":[],"default_left":[0,0,0,0,0,0,0,0,0,0,0,0,0,0,0,0,0,0,0,0,0,0,0,0,0,0,0,0,0,0,0],"id":16,"left_children":[1,3,5,7,9,11,13,15,17,19,21,23,25,27,29,-1,-1,-1,-1,-1,-1,-1,-1,-1,-1,-1,-1,-1,-1,-1,-1],"loss_changes":[3.2735635E4,4.448699E3,1.5641249E4,3.973816E3,1.0466426E3,1.0076057E4,6.608547E3,6.449219E2,4.644608E3,4.7836914E2,1.1063535E3,5.2793037E3,3.1587563E3,9.116758E2,4.9543164E3,0E0,0E0,0E0,0E0,0E0,0E0,0E0,0E0,0E0,0E0,0E0,0E0,0E0,0E0,0E0,0E0],"parents":[2147483647,0,0,1,1,2,2,3,3,4,4,5,5,6,6,7,7,8,8,9,9,10,10,11,11,12,12,13,13,14,14],"right_children":[2,4,6,8,10,12,14,16,18,20,22,24,26,28,30,-1,-1,-1,-1,-1,-1,-1,-1,-1,-1,-1,-1,-1,-1,-1,-1],"split_conditions":[2.6762334E-1,4.3497577E-1,2.9970065E-1,2.6020408E-3,-7.843303E-1,1.0989127E0,1.613617E0,1.9596304E0,2.3385936E-1,1.1976619E0,9.322831E0,8.079997E-2,1.4673209E1,3.4021368E0,2.658254E0,4.3999955E-2,-2.3516739E-2,-1.8307818E-2,2.170779E-2,4.9015332E-2,-1.2590763E-1,2.3516277E-2,5.8054954E-2,-4.549881E-3,-3.1471767E-2,9.554668E-3,4.1414283E-2,-5.8236033E-2,-2.3071108E-2,-1.5060951E-2,-6.8741225E-2],"split_indices":[3,1,4,6,3,9,9,4,6,4,5,4,9,5,4,0,0,0,0,0,0,0,0,0,0,0,0,0,0,0,0],"split_type":[0,0,0,0,0,0,0,0,0,0,0,0,0,0,0,0,0,0,0,0,0,0,0,0,0,0,0,0,0,0,0],"sum_hessian":[3.0429497E5,7.78039E4,2.2649106E5,4.407864E4,3.3725258E4,1.5690833E5,6.9582734E4,1.1833304E4,3.2245336E4,1.9761898E4,1.3963357E4,9.330156E4,6.360677E4,1.9411932E4,5.0170805E4,1.1468948E4,3.6435556E2,1.101106E4,2.1234277E4,1.9723658E4,3.8240124E1,1.1027279E4,2.9360784E3,6.849866E4,2.4802908E4,5.4532996E4,9.073772E3,1.7347678E4,2.0642542E3,4.542413E4,4.746673E3],"tree_param":{"num_deleted":"0","num_feature":"10","num_nodes":"31","size_leaf_vector":"1"}},{"base_weights":[-7.41738E-3,6.427627E-1,-1.5806112E-1,8.015334E-1,2.2481665E-1,-3.0549098E-2,-6.477658E-1,8.088948E-1,-1.0853926E-1,-2.2309003E0,2.7666998E-1,-2.2633512E-1,2.7758744E-1,-1.0073053E0,-4.067826E-1,3.3591848E-2,4.794797E-2,-1.16670094E-1,-1.0227251E-1,1.7839385E-2,-3.1722073E-2,-6.19018E-3,-3.9093208E-2,9.649587E-3,3.9180797E-2,-5.5511076E-2,-1.6576223E-2,-1.3243042E-2,-5.3391356E-2],"categories":[],"categories_nodes":[],"categories_segments":[],"categories_sizes":[],"default_left":[0,0,0,0,0,0,0,0,0,0,0,0,0,0,0,0,0,0,0,0,0,0,0,0,0,0,0,0,0],"id":17,"left_children":[1,3,5,7,9,11,13,15,-1,17,19,21,23,25,27,-1,-1,-1,-1,-1,-1,-1,-1,-1,-1,-1,-1,-1,-1],"loss_changes":[2.9631938E4,3.7762363E3,1.5337576E4,9.0415234E2,1.9958359E3,1.1757042E4,4.396203E3,8.455293E2,0E0,1.3883057E0,1.1204023E3,6.7875063E3,3.2411147E3,1.4158105E3,2.8501162E3,0E0,0E0,0E0,0E0,0E0,0E0,0E0,0E0,0E0,0E0,0E0,0E0,0E0,0E0],"parents":[2147483647,0,0,1,1,2,2,3,3,4,4,5,5,6,6,7,7,9,9,10,10,11,11,12,12,13,13,14,14],"right_children":[2,4,6,8,10,12,14,16,-1,18,20,22,24,26,28,-1,-1,-1,-1,-1,-1,-1,-1,-1,-1,-1,-1,-1,-1],"split_conditions":[-1.437874E-3,3.9630213E0,5.1187015E-1,2.4137673E0,5.0468993E0,1.7134784E0,4.325238E0,6.3238895E-1,-1.0853926E-1,-1.119354E0,5.3849646E2,1.7419821E-1,1.6152843E1,2.9321594E0,2.5266368E0,3.3591848E-2,4.794797E-2,-1.16670094E-1,-1.0227251E-1,1.7839385E-2,-3.1722073E-2,-6.19018E-3,-3.9093208E-2,9.649587E-3,3.9180797E-2,-5.5511076E-2,-1.6576223E-2,-1.3243042E-2,-5.3391356E-2],"split_indices":[3,2,4,4,2,9,9,9,0,3,2,4,9,6,4,0,0,0,0,0,0,0,0,0,0,0,0,0,0],"split_type":[0,0,0,0,0,0,0,0,0,0,0,0,0,0,0,0,0,0,0,0,0,0,0,0,0,0,0,0,0],"sum_hessian":[3.0253272E5,5.6909105E4,2.4562362E5,4.124131E4,1.5667794E4,1.9488061E5,5.0743027E4,4.114015E4,1.0116196E2,3.2312085E2,1.5344674E4,1.1916497E5,7.571563E4,2.036135E4,3.0381676E4,2.1504771E4,1.9635375E4,2.0064062E2,1.22480225E2,1.4104974E4,1.2396997E3,1.0059906E5,1.8565902E4,6.487199E4,1.08436455E4,1.7669738E4,2.691611E3,2.5012965E4,5.368712E3],"tree_param":{"num_deleted":"0","num_feature":"10","num_nodes":"29","size_leaf_vector":"1"}},{"base_weights":[1.2422139E-2,6.397353E-1,-1.343024E-1,8.292933E-1,3.7290782E-1,5.9321713E-2,-4.168749E-1,8.3904743E-1,-1.0867899E-1,-5.989618E-1,5.183988E-1,-1.159808E-1,3.7303337E-1,-6.125521E-1,1.0696093E-1,2.9906783E-2,4.5901682E-2,6.6036577E-3,-6.6710904E-2,2.782293E-2,-4.352454E-2,1.2156068E-2,-1.339266E-2,3.420333E-2,1.2649183E-2,-3.9967824E-2,-1.2156103E-2,3.6607724E-2,-1.3009133E-2],"categories":[],"categories_nodes":[],"categories_segments":[],"categories_sizes":[],"default_left":[0,0,0,0,0,0,0,0,0,0,0,0,0,0,0,0,0,0,0,0,0,0,0,0,0,0,0,0,0],"id":18,"left_children":[1,3,5,7,9,11,13,15,-1,17,19,21,23,25,27,-1,-1,-1,-1,-1,-1,-1,-1,-1,-1,-1,-1,-1,-1],"loss_changes":[2.8016379E4,2.918045E3,1.3497003E4,9.898789E2,3.3891628E3,8.0503467E3,1.0281564E4,6.392793E2,0E0,1.677793E3,1.1024507E3,5.121634E3,1.9592573E3,5.039422E3,6.2618066E3,0E0,0E0,0E0,0E0,0E0,0E0,0E0,0E0,0E0,0E0,0E0,0E0,0E0,0E0],"parents":[2147483647,0,0,1,1,2,2,3,3,4,4,5,5,6,6,7,7,9,9,10,10,11,11,12,12,13,13,14,14],"right_children":[2,4,6,8,10,12,14,16,-1,18,20,22,24,26,28,-1,-1,-1,-1,-1,-1,-1,-1,-1,-1,-1,-1,-1,-1],"split_conditions":[-1.437874E-3,5.3504294E-1,1.6412532E-1,1.9596304E0,9.761963E-3,1.2148187E0,9.889638E0,2.8882287E-2,-1.0867899E-1,5.9632408E-3,1.433799E2,5.4574876E0,5.4723825E0,9.8183036E-1,4.8305556E-1,2.9906783E-2,4.5901682E-2,6.6036577E-3,-6.6710904E-2,2.782293E-2,-4.352454E-2,1.2156068E-2,-1.339266E-2,3.420333E-2,1.2649183E-2,-3.9967824E-2,-1.2156103E-2,3.6607724E-2,-1.3009133E-2],"split_indices":[3,2,4,4,1,9,9,1,0,4,7,3,2,7,4,0,0,0,0,0,0,0,0,0,0,0,0,0,0],"split_type":[0,0,0,0,0,0,0,0,0,0,0,0,0,0,0,0,0,0,0,0,0,0,0,0,0,0,0,0,0],"sum_hessian":[3.043842E5,5.7697617E4,2.4668655E5,3.37319E4,2.396572E4,1.4638294E5,1.0030362E5,3.3623402E4,1.084976E2,3.1201592E3,2.084556E4,9.390777E4,5.2475164E4,7.302513E4,2.7278479E4,8.304093E3,2.5319309E4,1.5649823E3,1.5551768E3,2.0290148E4,5.554119E2,2.791119E4,6.5996586E4,1.4612188E4,3.7862977E4,4.849979E4,2.4525346E4,1.0092089E4,1.718639E4],"tree_param":{"num_deleted":"0","num_feature":"10","num_nodes":"29","size_leaf_vector":"1"}},{"base_weights":[-2.1848887E-2,5.0512123E-1,-1.405475E-1,5.792062E-1,-3.0524167E-1,-2.6420488E-3,-5.378967E-1,8.310251E-2,7.3788536E-1,-1.1264248E0,6.7890686E-1,-1.3765483E-1,2.793686E-1,-8.118371E-1,-2.876235E-1,4.015367E-2,-1.0436702E-2,1.9236354E-2,4.23259E-2,-6.501271E-2,5.279013E-2,5.045497E-2,-8.663339E-2,-1.3534612E-2,9.738861E-3,2.8498864E-2,7.18084E-3,-4.877576E-2,1.8294212E-4,-9.204501E-3,-6.695413E-2],"categories":[],"categories_nodes":[],"categories_segments":[],"categories_sizes":[],"default_left":[0,0,0,0,0,0,0,0,0,0,0,0,0,0,0,0,0,0,0,0,0,0,0,0,0,0,0,0,0,0,0],"id":19,"left_children":[1,3,5,7,9,11,13,15,17,19,21,23,25,27,29,-1,-1,-1,-1,-1,-1,-1,-1,-1,-1,-1,-1,-1,-1,-1,-1],"loss_changes":[1.8613688E4,3.284503E3,1.3308541E4,3.9457734E3,3.704647E3,6.8648945E3,4.289873E3,2.5526592E3,1.4566445E3,9.4924194E2,1.6622429E3,5.392365E3,2.30275E3,3.9875723E3,3.5596633E3,0E0,0E0,0E0,0E0,0E0,0E0,0E0,0E0,0E0,0E0,0E0,0E0,0E0,0E0,0E0,0E0],"parents":[2147483647,0,0,1,1,2,2,3,3,4,4,5,5,6,6,7,7,8,8,9,9,10,10,11,11,12,12,13,13,14,14],"right_children":[2,4,6,8,10,12,14,16,18,20,22,24,26,28,30,-1,-1,-1,-1,-1,-1,-1,-1,-1,-1,-1,-1,-1,-1,-1,-1],"split_conditions":[7.4722874E-1,1.1976619E0,3.295646E-1,4.8428002E-1,1.2330834E1,1.6614745E0,4.61208E0,2.6020408E-3,2.8882287E-2,7.727774E2,6.197632E0,4.4155073E-1,1.08647965E-1,2.9321594E0,2.8041065E0,4.015367E-2,-1.0436702E-2,1.9236354E-2,4.23259E-2,-6.501271E-2,5.279013E-2,5.045497E-2,-8.663339E-2,-1.3534612E-2,9.738861E-3,2.8498864E-2,7.18084E-3,-4.877576E-2,1.8294212E-4,-9.204501E-3,-6.695413E-2],"split_indices":[2,4,4,2,9,9,9,6,1,0,6,6,6,6,4,0,0,0,0,0,0,0,0,0,0,0,0,0,0,0,0],"split_type":[0,0,0,0,0,0,0,0,0,0,0,0,0,0,0,0,0,0,0,0,0,0,0,0,0,0,0,0,0,0,0],"sum_hessian":[2.9757578E5,5.4705215E4,2.4287058E5,5.0123145E4,4.5820703E3,1.8029705E5,6.257354E4,1.2147139E4,3.7976008E4,2.4977656E3,2.0843047E3,1.2192559E5,5.8371445E4,2.9873166E4,3.2700371E4,3.503105E3,8.644034E3,8.934625E3,2.904138E4,2.3138555E3,1.8391014E2,1.8338022E3,2.5050243E2,8.707776E4,3.4847836E4,1.8584262E4,3.9787184E4,2.4879424E4,4.993743E3,2.9770182E4,2.9301897E3],"tree_param":{"num_deleted":"0","num_feature":"10","num_nodes":"31","size_leaf_vector":"1"}},{"base_weights":[1.2264865E-2,4.876195E-1,-9.132641E-2,5.632222E-1,-2.2633019E-1,1.4455572E-1,-3.0182672E-1,1.1094282E-1,7.1728194E-1,-8.515212E-1,5.932984E-1,7.411183E-1,6.441429E-2,-4.7286847E-1,-1.5540185E-2,-9.66034E-3,3.4377854E-2,2.343708E-2,4.0338475E-2,-8.1528E-2,-2.5742268E-2,4.5396533E-2,-8.485392E-2,-6.4341497E-4,4.650872E-2,-1.4937769E-2,8.344795E-3,-3.4138016E-2,-5.8479784E-3,6.72287E-3,-3.1609904E-2],"categories":[],"categories_nodes":[],"categories_segments":[],"categories_sizes":[],"default_left":[0,0,0,0,0,0,0,0,0,0,0,0,0,0,0,0,0,0,0,0,0,0,0,0,0,0,0,0,0,0,0],"id":20,"left_children":[1,3,5,7,9,11,13,15,17,19,21,23,25,27,29,-1,-1,-1,-1,-1,-1,-1,-1,-1,-1,-1,-1,-1,-1,-1,-1],"loss_changes":[1.4811519E4,2.9051465E3,1.226275E4,3.3909287E3,2.6416382E3,5.56796E3,6.3904326E3,2.168939E3,8.0700977E2,7.6616187E2,1.6091646E3,1.9660688E3,3.8212876E3,6.102797E3,4.514895E3,0E0,0E0,0E0,0E0,0E0,0E0,0E0,0E0,0E0,0E0,0E0,0E0,0E0,0E0,0E0,0E0],"parents":[2147483647,0,0,1,1,2,2,3,3,4,4,5,5,6,6,7,7,8,8,9,9,10,10,11,11,12,12,13,13,14,14],"right_children":[2,4,6,8,10,12,14,16,18,20,22,24,26,28,30,-1,-1,-1,-1,-1,-1,-1,-1,-1,-1,-1,-1,-1,-1,-1,-1],"split_conditions":[7.4722874E-1,1.0313793E0,7.703064E-2,4.8428002E-1,1.2330834E1,7.930255E0,5.1151414E0,2.652184E0,4.3608773E-2,3.1745306E-1,6.197632E0,5.3305592E-2,1.6758028E-2,9.8062974E-1,1.3735026E0,-9.66034E-3,3.4377854E-2,2.343708E-2,4.0338475E-2,-8.1528E-2,-2.5742268E-2,4.5396533E-2,-8.485392E-2,-6.4341497E-4,4.650872E-2,-1.4937769E-2,8.344795E-3,-3.4138016E-2,-5.8479784E-3,6.72287E-3,-3.1609904E-2],"split_indices":[2,4,4,2,9,2,9,0,1,1,6,1,1,7,4,0,0,0,0,0,0,0,0,0,0,0,0,0,0,0,0],"split_type":[0,0,0,0,0,0,0,0,0,0,0,0,0,0,0,0,0,0,0,0,0,0,0,0,0,0,0,0,0,0,0],"sum_hessian":[3.0078484E5,5.381902E4,2.4696581E5,4.866583E4,5.1531904E3,1.1646167E5,1.3050415E5,1.2365538E4,3.6300293E4,2.92332E3,2.2298704E3,1.3791471E4,1.026702E5,8.169491E4,4.8809242E4,8.095846E3,4.2696924E3,9.611581E3,2.668871E4,8.809755E2,2.0423446E3,1.9610779E3,2.687924E2,2.7650251E3,1.1026445E4,2.259547E4,8.0074734E4,5.138844E4,3.030646E4,3.926025E4,9.548991E3],"tree_param":{"num_deleted":"0","num_feature":"10","num_nodes":"31","size_leaf_vector":"1"}},{"base_weights":[2.6240168E-2,1.2588161E-1,-4.3880087E-1,4.8225838E-1,-6.20112E-3,9.647788E-2,-5.602377E-1,3.1479928E-1,7.1983063E-1,1.4534004E-1,-2.6707065E-1,1.7371313E-1,-1.7794158E0,-9.7024786E-1,-4.0644628E-1,7.390741E-3,3.6774866E-2,5.0692268E-2,2.7022665E-2,-2.1991718E-5,2.1393659E-2,-2.195442E-2,7.5119645E-3,-4.3488843E-3,4.261854E-2,-1.23380005E-1,-8.106714E-2,-5.6978203E-2,-7.174466E-3,-2.54712E-2,1.0005185E-2],"categories":[],"categories_nodes":[],"categories_segments":[],"categories_sizes":[],"default_left":[0,0,0,0,0,0,0,0,0,0,0,0,0,0,0,0,0,0,0,0,0,0,0,0,0,0,0,0,0,0,0],"id":21,"left_children":[1,3,5,7,9,11,13,15,17,19,21,23,25,27,29,-1,-1,-1,-1,-1,-1,-1,-1,-1,-1,-1,-1,-1,-1,-1,-1],"loss_changes":[1.3981582E4,1.1696803E4,3.4609717E3,2.6729883E3,7.167226E3,1.4268866E3,2.736082E3,2.7687607E3,1.4645752E3,4.7234316E3,4.782288E3,1.6733485E3,3.8365112E1,1.656832E3,1.9714648E3,0E0,0E0,0E0,0E0,0E0,0E0,0E0,0E0,0E0,0E0,0E0,0E0,0E0,0E0,0E0,0E0],"parents":[2147483647,0,0,1,1,2,2,3,3,4,4,5,5,6,6,7,7,8,8,9,9,10,10,11,11,12,12,13,13,14,14],"right_children":[2,4,6,8,10,12,14,16,18,20,22,24,26,28,30,-1,-1,-1,-1,-1,-1,-1,-1,-1,-1,-1,-1,-1,-1,-1,-1],"split_conditions":[5.221757E-1,2.6484783E0,7.906871E-1,2.4635777E0,7.703064E-2,7.137695E0,1.7134784E0,1.1517813E0,1.2614621E-3,5.390259E-1,5.1151414E0,1.2657503E1,1.0313793E0,9.294272E-1,1.06452705E2,7.390741E-3,3.6774866E-2,5.0692268E-2,2.7022665E-2,-2.1991718E-5,2.1393659E-2,-2.195442E-2,7.5119645E-3,-4.3488843E-3,4.261854E-2,-1.23380005E-1,-8.106714E-2,-5.6978203E-2,-7.174466E-3,-2.54712E-2,1.0005185E-2],"split_indices":[4,2,2,9,4,8,9,6,8,9,9,9,4,8,1,0,0,0,0,0,0,0,0,0,0,0,0,0,0,0,0],"split_type":[0,0,0,0,0,0,0,0,0,0,0,0,0,0,0,0,0,0,0,0,0,0,0,0,0,0,0,0,0,0,0],"sum_hessian":[3.0173234E5,2.4849055E5,5.3241793E4,6.7192805E4,1.8129775E5,9.845267E3,4.3396527E4,3.9413484E4,2.7779316E4,1.146798E5,6.661795E4,9.456813E3,3.884533E2,1.1836076E4,3.156045E4,2.821548E4,1.1198005E4,1.0524351E4,1.7254965E4,7.564824E4,3.903156E4,4.7172926E4,1.9445021E4,6.83296E3,2.6238535E3,6.9830376E1,3.1862296E2,9.823826E3,2.0122509E3,2.6980043E4,4.5804062E3],"tree_param":{"num_deleted":"0","num_feature":"10","num_nodes":"31","size_leaf_vector":"1"}},{"base_weights":[-1.1970326E-2,3.9721185E-1,-1.7518048E-1,3.7427593E-2,5.6639093E-1,-3.5581467E-1,1.3561009E-1,-9.944477E-2,4.2383242E-1,6.072554E-1,-8.781611E-1,-9.558437E-2,-6.531949E-1,-9.096185E-2,3.3119383E-1,2.1386163E-2,-1.5613128E-2,-8.880689E-2,2.8603572E-2,3.8465243E-2,2.3555303E-2,-8.281788E-2,1.945594E-2,2.4343576E-2,-1.2731992E-2,-4.028066E-2,-1.1721638E-2,-5.798765E-4,-4.0506396E-2,2.6676176E-2,4.115667E-3],"categories":[],"categories_nodes":[],"categories_segments":[],"categories_sizes":[],"default_left":[0,0,0,0,0,0,0,0,0,0,0,0,0,0,0,0,0,0,0,0,0,0,0,0,0,0,0,0,0,0,0],"id":22,"left_children":[1,3,5,7,9,11,13,15,17,19,21,23,25,27,29,-1,-1,-1,-1,-1,-1,-1,-1,-1,-1,-1,-1,-1,-1,-1,-1],"loss_changes":[1.9712516E4,5.1229316E3,1.1845967E4,1.4237742E3,3.379832E3,1.0327141E4,3.437088E3,2.2303933E3,2.2974023E3,1.2279258E3,1.5541747E3,6.5935723E3,3.9748613E3,2.0510205E3,2.0961626E3,0E0,0E0,0E0,0E0,0E0,0E0,0E0,0E0,0E0,0E0,0E0,0E0,0E0,0E0,0E0,0E0],"parents":[2147483647,0,0,1,1,2,2,3,3,4,4,5,5,6,6,7,7,8,8,9,9,10,10,11,11,12,12,13,13,14,14],"right_children":[2,4,6,8,10,12,14,16,18,20,22,24,26,28,30,-1,-1,-1,-1,-1,-1,-1,-1,-1,-1,-1,-1,-1,-1,-1,-1],"split_conditions":[7.0988053E-1,7.513446E-2,9.672099E0,1.7009108E0,2.658254E0,5.630474E-2,1.0175304E0,2.6020408E-3,9.5974046E-1,-2.0642276E0,3.8790216E0,3.0469097E-2,5.326164E0,2.208589E1,2.2760553E0,2.1386163E-2,-1.5613128E-2,-8.880689E-2,2.8603572E-2,3.8465243E-2,2.3555303E-2,-8.281788E-2,1.945594E-2,2.4343576E-2,-1.2731992E-2,-4.028066E-2,-1.1721638E-2,-5.798765E-4,-4.0506396E-2,2.6676176E-2,4.115667E-3],"split_indices":[3,1,5,6,4,5,7,6,7,3,8,4,5,0,6,0,0,0,0,0,0,0,0,0,0,0,0,0,0,0,0],"split_type":[0,0,0,0,0,0,0,0,0,0,0,0,0,0,0,0,0,0,0,0,0,0,0,0,0,0,0,0,0,0,0],"sum_hessian":[2.9517203E5,8.4164016E4,2.11008E5,2.6918686E4,5.7245332E4,1.3344719E5,7.756081E4,1.9878178E4,7.040508E3,5.567105E4,1.5742804E3,7.1169664E4,6.227753E4,3.5933992E4,4.162682E4,5.7166167E3,1.4161561E4,4.4376376E2,6.596744E3,2.5415746E4,3.0255303E4,9.75159E2,5.991214E2,1.5265572E4,5.590409E4,4.565823E4,1.6619303E4,3.2363502E4,3.5704917E3,2.2960074E4,1.8666746E4],"tree_param":{"num_deleted":"0","num_feature":"10","num_nodes":"31","size_leaf_vector":"1"}},{"base_weights":[6.7230426E-3,3.9404956E-1,-1.4470537E-1,4.5048523E-1,-5.0282276E-1,5.1762924E-2,-4.5002827E-1,1.8701234E-1,5.848093E-1,-1.1339116E0,4.8841912E-1,5.203E-1,-5.6801207E-2,-5.7627344E-1,3.1095317E-1,-8.1287575E-4,3.3338156E-2,2.3695834E-2,4.154447E-2,-6.4333364E-2,7.76483E-2,4.0070206E-2,-8.339631E-2,-3.679367E-2,2.8710816E-2,-1.1446147E-2,1.3588828E-2,-3.7916817E-2,-1.1665882E-2,2.7511636E-2,-5.85993E-2],"categories":[],"categories_nodes":[],"categories_segments":[],"categories_sizes":[],"default_left":[0,0,0,0,0,0,0,0,0,0,0,0,0,0,0,0,0,0,0,0,0,0,0,0,0,0,0,0,0,0,0],"id":23,"left_children":[1,3,5,7,9,11,13,15,17,19,21,23,25,27,29,-1,-1,-1,-1,-1,-1,-1,-1,-1,-1,-1,-1,-1,-1,-1,-1],"loss_changes":[1.7407832E4,4.2226377E3,1.279967E4,2.7774707E3,3.0901968E3,6.6041616E3,8.026287E3,2.5845415E3,1.4180938E3,1.2406995E3,1.2984833E3,1.6546353E3,5.9615547E3,4.474039E3,4.2190566E3,0E0,0E0,0E0,0E0,0E0,0E0,0E0,0E0,0E0,0E0,0E0,0E0,0E0,0E0,0E0,0E0],"parents":[2147483647,0,0,1,1,2,2,3,3,4,4,5,5,6,6,7,7,8,8,9,9,10,10,11,11,12,12,13,13,14,14],"right_children":[2,4,6,8,10,12,14,16,18,20,22,24,26,28,30,-1,-1,-1,-1,-1,-1,-1,-1,-1,-1,-1,-1,-1,-1,-1,-1],"split_conditions":[6.7969346E-1,1.1976619E0,1.6412532E-1,1.7956242E-2,1.2330834E1,4.9096746E0,1.6729385E1,1.9841969E0,6.204193E-1,2.4461367E0,1.3941451E0,-5.036637E0,1.4284761E0,9.783024E-1,2.4137673E0,-8.1287575E-4,3.3338156E-2,2.3695834E-2,4.154447E-2,-6.4333364E-2,7.76483E-2,4.0070206E-2,-8.339631E-2,-3.679367E-2,2.8710816E-2,-1.1446147E-2,1.3588828E-2,-3.7916817E-2,-1.1665882E-2,2.7511636E-2,-5.85993E-2],"split_indices":[3,4,4,4,9,3,9,9,0,2,5,9,9,7,4,0,0,0,0,0,0,0,0,0,0,0,0,0,0,0,0],"split_type":[0,0,0,0,0,0,0,0,0,0,0,0,0,0,0,0,0,0,0,0,0,0,0,0,0,0,0,0,0,0,0],"sum_hessian":[2.9679544E5,8.342016E4,2.1337527E5,7.8482164E4,4.9379897E3,1.2983211E5,8.3543164E4,2.6501877E4,5.1980285E4,3.017017E3,1.9209727E3,2.442327E4,1.05408836E5,7.165585E4,1.1887308E4,1.8615484E4,7.886393E3,3.5834766E4,1.6145521E4,2.8552124E3,1.6180472E2,1.6780402E3,2.4293253E2,1.0046112E3,2.3418658E4,6.917343E4,3.623541E4,4.680667E4,2.4849184E4,1.0236265E4,1.6510428E3],"tree_param":{"num_deleted":"0","num_feature":"10","num_nodes":"31","size_leaf_vector":"1"}},{"base_weights":[1.9466293E-3,5.328891E-1,-1.16669364E-1,3.762794E-1,7.8630155E-1,4.8327122E-2,-3.8359743E-1,7.1971035E-1,2.4898478E-1,7.953028E-1,-1.019506E-1,3.7017754E-1,-8.690909E-2,-8.1254023E-1,-2.0501985E-1,3.734233E-2,-1.12861276E-1,-4.9844887E-2,1.8234259E-2,4.170587E-2,1.8748594E-2,3.7085418E-2,9.100427E-3,8.775021E-3,-1.6511934E-2,5.503983E-3,-4.739647E-2,-1.5691031E-3,-2.503266E-2],"categories":[],"categories_nodes":[],"categories_segments":[],"categories_sizes":[],"default_left":[0,0,0,0,0,0,0,0,0,0,0,0,0,0,0,0,0,0,0,0,0,0,0,0,0,0,0,0,0],"id":24,"left_children":[1,3,5,7,9,11,13,15,17,19,-1,21,23,25,27,-1,-1,-1,-1,-1,-1,-1,-1,-1,-1,-1,-1,-1,-1],"loss_changes":[1.8593203E4,2.1393164E3,1.0628266E4,1.4565659E3,5.252832E2,6.491288E3,7.061164E3,7.2958203E2,3.5050151E3,3.3457617E2,0E0,3.0846226E3,6.7053086E3,3.3848594E3,3.3412043E3,0E0,0E0,0E0,0E0,0E0,0E0,0E0,0E0,0E0,0E0,0E0,0E0,0E0,0E0],"parents":[2147483647,0,0,1,1,2,2,3,3,4,4,5,5,6,6,7,7,8,8,9,9,11,11,12,12,13,13,14,14],"right_children":[2,4,6,8,10,12,14,16,18,20,-1,22,24,26,28,-1,-1,-1,-1,-1,-1,-1,-1,-1,-1,-1,-1,-1,-1],"split_conditions":[-1.437874E-3,1.9219571E-1,1.775696E-1,5.630474E-2,1.9596304E0,4.99697E0,1.4733598E0,-1.2677462E-1,1.3088759E0,5.5255027E0,-1.019506E-1,2.6020408E-3,1.6522586E-2,5.807892E-1,8.781565E-1,3.734233E-2,-1.12861276E-1,-4.9844887E-2,1.8234259E-2,4.170587E-2,1.8748594E-2,3.7085418E-2,9.100427E-3,8.775021E-3,-1.6511934E-2,5.503983E-3,-4.739647E-2,-1.5691031E-3,-2.503266E-2],"split_indices":[3,9,4,5,4,3,9,3,5,8,0,6,4,3,4,0,0,0,0,0,0,0,0,0,0,0,0,0,0],"split_type":[0,0,0,0,0,0,0,0,0,0,0,0,0,0,0,0,0,0,0,0,0,0,0,0,0,0,0,0,0],"sum_hessian":[2.9523006E5,5.391138E4,2.4131867E5,3.3321234E4,2.0590145E4,1.4913472E5,9.218396E4,9.009541E3,2.4311693E4,2.0525469E4,6.467415E1,4.412332E4,1.050114E5,2.709597E4,6.5087984E4,8.928899E3,8.0642136E1,2.065236E3,2.2246457E4,1.8789416E4,1.7360533E3,1.4833106E4,2.9290213E4,5.0524957E4,5.4486438E4,3.4673855E3,2.3628586E4,4.1005094E4,2.4082893E4],"tree_param":{"num_deleted":"0","num_feature":"10","num_nodes":"29","size_leaf_vector":"1"}},{"base_weights":[1.339153E-2,4.1100004E-1,-1.1577367E-1,1.2909862E-2,5.3424025E-1,-1.7036688E-2,-5.0522465E-1,1.4887209E-1,-5.1198626E-1,6.880328E-1,3.5128343E-1,-1.3458657E-1,1.9797438E-1,-4.4324315E-1,-1.2706496E0,-4.282369E-3,2.2399282E-2,-4.0268034E-2,4.441838E-2,3.7651803E-2,-4.2838617E-3,3.1830098E-3,2.6548833E-2,8.744278E-3,-1.3090287E-2,3.813473E-2,6.515335E-3,-2.9976696E-2,5.255959E-3,-7.059467E-2,1.1752466E-1],"categories":[],"categories_nodes":[],"categories_segments":[],"categories_sizes":[],"default_left":[0,0,0,0,0,0,0,0,0,0,0,0,0,0,0,0,0,0,0,0,0,0,0,0,0,0,0,0,0,0,0],"id":25,"left_children":[1,3,5,7,9,11,13,15,17,19,21,23,25,27,29,-1,-1,-1,-1,-1,-1,-1,-1,-1,-1,-1,-1,-1,-1,-1,-1],"loss_changes":[1.5140545E4,3.546458E3,8.556659E3,1.2196802E3,1.5529092E3,4.4866885E3,2.1345908E3,9.522466E2,1.44524E3,1.5083027E3,1.3029805E3,4.51867E3,2.3976775E3,3.568395E3,1.7273843E3,0E0,0E0,0E0,0E0,0E0,0E0,0E0,0E0,0E0,0E0,0E0,0E0,0E0,0E0,0E0,0E0],"parents":[2147483647,0,0,1,1,2,2,3,3,4,4,5,5,6,6,7,7,8,8,9,9,10,10,11,11,12,12,13,13,14,14],"right_children":[2,4,6,8,10,12,14,16,18,20,22,24,26,28,30,-1,-1,-1,-1,-1,-1,-1,-1,-1,-1,-1,-1,-1,-1,-1,-1],"split_conditions":[2.6762334E-1,2.3346463E-2,5.1187015E-1,1.0051681E-2,-2.0642276E0,1.4654489E0,3.6709187E0,3.8155325E-2,1.8254941E2,7.418169E1,1.8260361E-1,3.8430696E0,1.7696775E0,2.6133285E0,5.212437E1,-4.282369E-3,2.2399282E-2,-4.0268034E-2,4.441838E-2,3.7651803E-2,-4.2838617E-3,3.1830098E-3,2.6548833E-2,8.744278E-3,-1.3090287E-2,3.813473E-2,6.515335E-3,-2.9976696E-2,5.255959E-3,-7.059467E-2,1.1752466E-1],"split_indices":[3,1,4,0,3,0,3,4,5,2,0,3,3,2,3,0,0,0,0,0,0,0,0,0,0,0,0,0,0,0,0],"split_type":[0,0,0,0,0,0,0,0,0,0,0,0,0,0,0,0,0,0,0,0,0,0,0,0,0,0,0,0,0,0,0],"sum_hessian":[2.9480678E5,7.228625E4,2.2252053E5,1.7088414E4,5.5197836E4,1.7751614E5,4.500439E4,1.3573284E4,3.5151296E3,2.9987633E4,2.5210203E4,1.14769984E5,6.2746156E4,4.1634547E4,3.3698438E3,7.608537E3,5.964747E3,2.9066177E3,6.085121E2,2.766351E4,2.3241218E3,9.694386E3,1.5515817E4,3.3435273E4,8.133471E4,6.712956E3,5.60332E4,3.2400006E4,9.234539E3,3.2439236E3,1.2592015E2],"tree_param":{"num_deleted":"0","num_feature":"10","num_nodes":"31","size_leaf_vector":"1"}},{"base_weights":[1.2166281E-2,4.9209478E-1,-9.1440335E-2,6.312769E-1,1.5650061E-1,-2.0299223E-1,1.6936278E-1,3.7456653E-1,7.081455E-1,1.9613136E-1,-2.3433828E0,-3.3600307E-1,9.595816E-2,-5.012507E-2,3.7485072E-1,-1.322491E-2,3.243623E-2,3.576107E-2,-9.160944E-2,-2.4457686E-2,1.7251063E-2,-8.857997E-2,-1.2529013E-1,-3.023008E-3,-3.206543E-2,1.110452E-2,-2.1497855E-2,2.1905713E-2,-8.523E-3,2.3902183E-2,-3.511172E-2],"categories":[],"categories_nodes":[],"categories_segments":[],"categories_sizes":[],"default_left":[0,0,0,0,0,0,0,0,0,0,0,0,0,0,0,0,0,0,0,0,0,0,0,0,0,0,0,0,0,0,0],"id":26,"left_children":[1,3,5,7,9,11,13,15,17,19,21,23,25,27,29,-1,-1,-1,-1,-1,-1,-1,-1,-1,-1,-1,-1,-1,-1,-1,-1],"loss_changes":[1.4572147E4,2.4303008E3,7.012311E3,7.254971E2,1.5118069E3,6.7129634E3,3.256804E3,1.4854457E3,5.100537E2,1.5324711E3,1.7676636E1,9.828863E3,3.448488E3,2.0514722E3,4.145485E3,0E0,0E0,0E0,0E0,0E0,0E0,0E0,0E0,0E0,0E0,0E0,0E0,0E0,0E0,0E0,0E0],"parents":[2147483647,0,0,1,1,2,2,3,3,4,4,5,5,6,6,7,7,8,8,9,9,10,10,11,11,12,12,13,13,14,14],"right_children":[2,4,6,8,10,12,14,16,18,20,22,24,26,28,30,-1,-1,-1,-1,-1,-1,-1,-1,-1,-1,-1,-1,-1,-1,-1,-1],"split_conditions":[-1.437874E-3,4.0824485E0,1.026838E0,2.3346463E-2,2.2009964E-1,5.219303E0,2.7331644E-1,-1.6284227E-2,2.4137673E0,9.761963E-3,2.6932845E-2,6.9922596E-2,1.3735026E0,1.4555182E0,7.8640854E-1,-1.322491E-2,3.243623E-2,3.576107E-2,-9.160944E-2,-2.4457686E-2,1.7251063E-2,-8.857997E-2,-1.2529013E-1,-3.023008E-3,-3.206543E-2,1.110452E-2,-2.1497855E-2,2.1905713E-2,-8.523E-3,2.3902183E-2,-3.511172E-2],"split_indices":[3,2,7,1,4,9,8,9,4,1,1,4,4,3,4,0,0,0,0,0,0,0,0,0,0,0,0,0,0,0,0],"split_type":[0,0,0,0,0,0,0,0,0,0,0,0,0,0,0,0,0,0,0,0,0,0,0,0,0,0,0,0,0,0,0],"sum_hessian":[2.9306012E5,5.2032133E4,2.4102798E5,3.6778137E4,1.5253997E4,1.6881981E5,7.2208164E4,8.476362E3,2.8301771E4,1.5016855E4,2.3714131E2,1.1683621E5,5.1983605E4,3.4915074E4,3.729309E4,2.5446943E3,5.9316685E3,2.8223875E4,7.78963E1,2.6799148E3,1.2336941E4,5.5094315E1,1.82047E2,6.1412066E4,5.5424145E4,4.1928348E4,1.0055257E4,6.903324E3,2.8011752E4,3.403302E4,3.2600667E3],"tree_param":{"num_deleted":"0","num_feature":"10","num_nodes":"31","size_leaf_vector":"1"}},{"base_weights":[8.595405E-3,3.4875676E-1,-1.2340086E-1,6.149454E-1,2.2539674E-1,-3.1820359E-3,-5.665941E-1,6.844192E-1,-1.1058979E0,-3.4499618E-1,4.5559138E-1,-5.8546748E-2,5.6742054E-1,-1.0957977E0,-4.564221E-1,3.673319E-2,-8.782733E-3,-1.3148688E-2,-7.853585E-2,-2.9013227E-3,-3.429399E-2,-7.276814E-3,2.7579486E-2,6.7347893E-3,-9.8462E-3,3.6061473E-2,-2.6816395E-4,-5.995803E-2,7.1937494E-2,-1.9547446E-2,-4.9700137E-2],"categories":[],"categories_nodes":[],"categories_segments":[],"categories_sizes":[],"default_left":[0,0,0,0,0,0,0,0,0,0,0,0,0,0,0,0,0,0,0,0,0,0,0,0,0,0,0,0,0,0,0],"id":27,"left_children":[1,3,5,7,9,11,13,15,17,19,21,23,25,27,29,-1,-1,-1,-1,-1,-1,-1,-1,-1,-1,-1,-1,-1,-1,-1,-1],"loss_changes":[1.311895E4,2.6820615E3,1.1215436E4,3.0931348E3,7.3290186E3,5.23106E3,2.6182305E3,1.0745566E3,3.9300928E2,1.5700021E3,2.295001E3,4.0362231E3,1.2902622E3,2.0291172E3,1.3081616E3,0E0,0E0,0E0,0E0,0E0,0E0,0E0,0E0,0E0,0E0,0E0,0E0,0E0,0E0,0E0,0E0],"parents":[2147483647,0,0,1,1,2,2,3,3,4,4,5,5,6,6,7,7,8,8,9,9,10,10,11,11,12,12,13,13,14,14],"right_children":[2,4,6,8,10,12,14,16,18,20,22,24,26,28,30,-1,-1,-1,-1,-1,-1,-1,-1,-1,-1,-1,-1,-1,-1,-1,-1],"split_conditions":[6.7969346E-1,2.6020408E-3,4.225983E-1,2.658254E0,3.559058E-1,1.1396582E1,7.6797974E-1,5.11805E-1,1.0051681E-2,-1.5274725E0,9.7596586E-1,2.9428633E-2,3.0373678E1,1.04246025E1,3.6208873E0,3.673319E-2,-8.782733E-3,-1.3148688E-2,-7.853585E-2,-2.9013227E-3,-3.429399E-2,-7.276814E-3,2.7579486E-2,6.7347893E-3,-9.8462E-3,3.6061473E-2,-2.6816395E-4,-5.995803E-2,7.1937494E-2,-1.9547446E-2,-4.9700137E-2],"split_indices":[3,6,4,4,6,9,9,3,0,3,7,4,3,5,3,0,0,0,0,0,0,0,0,0,0,0,0,0,0,0,0],"split_type":[0,0,0,0,0,0,0,0,0,0,0,0,0,0,0,0,0,0,0,0,0,0,0,0,0,0,0,0,0,0,0],"sum_hessian":[2.921794E5,8.168114E4,2.1049825E5,2.5865049E4,5.581609E4,1.655837E5,4.491456E4,2.4861926E4,1.0031222E3,1.6048776E4,3.9767312E4,1.5093919E5,1.4644507E4,7.7377734E3,3.7176785E4,2.3489822E4,1.3721044E3,3.571023E2,6.460199E2,8.714079E3,7.334697E3,5.47612E3,3.429119E4,6.2983434E4,8.795576E4,1.1544277E4,3.1002295E3,7.4350854E3,3.026881E2,3.3142066E4,4.0347207E3],"tree_param":{"num_deleted":"0","num_feature":"10","num_nodes":"31","size_leaf_vector":"1"}},{"base_weights":[-2.1816809E-2,3.5965624E-1,-1.4571969E-1,-4.7978595E-2,4.8141652E-1,-2.7104515E-1,5.69945E-2,-3.6672023E-1,4.5812392E-1,6.2534404E-1,3.157985E-1,-3.3414844E-1,1.4709999E-1,-2.789227E-1,1.3780159E-1,-1.5050903E-2,-1.0171461E-1,4.5513805E-2,9.370708E-3,3.3663027E-2,-2.843517E-3,-4.1812725E-4,2.5666256E-2,-2.2271229E-2,-5.5351146E-3,1.928256E-2,-3.567451E-2,-1.5939845E-3,-4.731601E-2,1.676661E-2,-1.7549759E-3],"categories":[],"categories_nodes":[],"categories_segments":[],"categories_sizes":[],"default_left":[0,0,0,0,0,0,0,0,0,0,0,0,0,0,0,0,0,0,0,0,0,0,0,0,0,0,0,0,0,0,0],"id":28,"left_children":[1,3,5,7,9,11,13,15,17,19,21,23,25,27,29,-1,-1,-1,-1,-1,-1,-1,-1,-1,-1,-1,-1,-1,-1,-1,-1],"loss_changes":[1.3546704E4,3.487666E3,5.496195E3,2.6074182E3,1.2895342E3,3.5276123E3,2.2435923E3,1.085965E3,7.6435425E2,9.463203E2,1.6109758E3,2.888165E3,3.5992065E3,2.6425095E3,2.2755005E3,0E0,0E0,0E0,0E0,0E0,0E0,0E0,0E0,0E0,0E0,0E0,0E0,0E0,0E0,0E0,0E0],"parents":[2147483647,0,0,1,1,2,2,3,3,4,4,5,5,6,6,7,7,8,8,9,9,10,10,11,11,12,12,13,13,14,14],"right_children":[2,4,6,8,10,12,14,16,18,20,22,24,26,28,30,-1,-1,-1,-1,-1,-1,-1,-1,-1,-1,-1,-1,-1,-1,-1,-1],"split_conditions":[2.6762334E-1,2.1646934E-2,9.783024E-1,6.867641E-1,-2.0642276E0,6.3025738E1,2.6888695E-1,1.4711443E-1,3.465428E-2,1.2703621E2,1.8260361E-1,2.2169851E1,2.6020408E-3,6.229235E-2,2.2760553E0,-1.5050903E-2,-1.0171461E-1,4.5513805E-2,9.370708E-3,3.3663027E-2,-2.843517E-3,-4.1812725E-4,2.5666256E-2,-2.2271229E-2,-5.5351146E-3,1.928256E-2,-3.567451E-2,-1.5939845E-3,-4.731601E-2,1.676661E-2,-1.7549759E-3],"split_indices":[3,1,7,9,3,0,6,0,6,2,0,2,6,8,6,0,0,0,0,0,0,0,0,0,0,0,0,0,0,0,0],"split_type":[0,0,0,0,0,0,0,0,0,0,0,0,0,0,0,0,0,0,0,0,0,0,0,0,0,0,0,0,0,0,0],"sum_hessian":[2.866059E5,7.0266625E4,2.163393E5,1.6161382E4,5.4105246E4,1.3368803E5,8.265126E4,9.916364E3,6.245017E3,2.8946771E4,2.5158475E4,1.16158484E5,1.7529553E4,1.6026446E4,6.662481E4,9.541606E3,3.7475784E2,2.3378567E3,3.9071606E3,2.7047086E4,1.8996854E3,9.526117E3,1.5632358E4,7.754173E4,3.8616758E4,1.3725473E4,3.8040796E3,1.1697545E4,4.328901E3,3.1097074E4,3.552774E4],"tree_param":{"num_deleted":"0","num_feature":"10","num_nodes":"31","size_leaf_vector":"1"}},{"base_weights":[-8.198888E-3,3.2391614E-1,-1.4330733E-1,2.672392E-1,8.2171714E-1,7.177158E-2,-3.372788E-1,3.227049E-1,-6.590487E-1,6.8764454E-1,1.4021803E0,3.2169804E-1,-1.7092922E-1,-6.96337E-1,-1.7071293E-1,2.9855562E-2,1.0854561E-2,-4.655699E-2,5.452443E-2,3.957328E-2,1.0462343E-2,7.4177675E-2,-1.5755314E-1,3.5227474E-2,3.0130453E-3,-3.7624245E-4,-5.0309207E-2,-4.5012757E-2,1.7930537E-2,-4.619363E-3,-3.128235E-2],"categories":[],"categories_nodes":[],"categories_segments":[],"categories_sizes":[],"default_left":[0,0,0,0,0,0,0,0,0,0,0,0,0,0,0,0,0,0,0,0,0,0,0,0,0,0,0,0,0,0,0],"id":29,"left_children":[1,3,5,7,9,11,13,15,17,19,21,23,25,27,29,-1,-1,-1,-1,-1,-1,-1,-1,-1,-1,-1,-1,-1,-1,-1,-1],"loss_changes":[1.2881534E4,2.3419395E3,8.513287E3,3.8293882E3,6.59374E2,5.8696553E3,6.4168926E3,2.0378345E3,2.0056179E3,3.422871E2,5.942063E2,4.7717173E3,6.700495E3,7.314672E3,2.6116948E3,0E0,0E0,0E0,0E0,0E0,0E0,0E0,0E0,0E0,0E0,0E0,0E0,0E0,0E0,0E0,0E0],"parents":[2147483647,0,0,1,1,2,2,3,3,4,4,5,5,6,6,7,7,8,8,9,9,10,10,11,11,12,12,13,13,14,14],"right_children":[2,4,6,8,10,12,14,16,18,20,22,24,26,28,30,-1,-1,-1,-1,-1,-1,-1,-1,-1,-1,-1,-1,-1,-1,-1,-1],"split_conditions":[7.700908E-1,1.2330834E1,7.703064E-2,1.1086794E0,7.4722874E-1,2.910755E1,1.0265888E0,2.6020408E-3,1.8712634E0,6.7309856E0,2.3569986E1,2.9428633E-2,1.5786977E-2,6.5551877E0,1.3735026E0,2.9855562E-2,1.0854561E-2,-4.655699E-2,5.452443E-2,3.957328E-2,1.0462343E-2,7.4177675E-2,-1.5755314E-1,3.5227474E-2,3.0130453E-3,-3.7624245E-4,-5.0309207E-2,-4.5012757E-2,1.7930537E-2,-4.619363E-3,-3.128235E-2],"split_indices":[3,9,4,4,2,3,9,6,2,8,5,4,4,5,4,0,0,0,0,0,0,0,0,0,0,0,0,0,0,0,0],"split_type":[0,0,0,0,0,0,0,0,0,0,0,0,0,0,0,0,0,0,0,0,0,0,0,0,0,0,0,0,0,0,0],"sum_hessian":[2.8707375E5,8.301359E4,2.0406016E5,7.452959E4,8.483999E3,9.6765516E4,1.0729464E5,7.031954E4,4.2100527E3,6.8938706E3,1.5901287E3,4.7672938E4,4.909258E4,3.399977E4,7.3294875E4,1.9541645E4,5.07779E4,3.6438262E3,5.662267E2,5.66402E3,1.2298505E3,1.5628721E3,2.7256638E1,1.9343871E4,2.8329066E4,4.106071E4,8.031868E3,2.8492418E4,5.5073506E3,6.253028E4,1.0764591E4],"tree_param":{"num_deleted":"0","num_feature":"10","num_nodes":"31","size_leaf_vector":"1"}},{"base_weights":[6.067847E-3,2.8326654E-1,-9.882695E-2,6.914572E-2,4.5294753E-1,-2.1617861E-1,2.4553505E-1,-2.4364935E-1,2.3861633E-1,4.864954E-1,-4.7287318E-1,-1.2609999E-2,-3.821468E-1,4.8214564E-1,4.2463727E-2,-7.230597E-3,-7.22054E-2,2.4500763E-2,-5.2046534E-3,2.0460248E-2,4.7834054E-2,2.0258319E-2,-7.369716E-2,3.1608846E-2,-6.392367E-3,-3.3863056E-2,-8.923409E-3,2.9343883E-2,-2.5838E-3,1.046417E-2,-5.134329E-2],"categories":[],"categories_nodes":[],"categories_segments":[],"categories_sizes":[],"default_left":[0,0,0,0,0,0,0,0,0,0,0,0,0,0,0,0,0,0,0,0,0,0,0,0,0,0,0,0,0,0,0],"id":30,"left_children":[1,3,5,7,9,11,13,15,17,19,21,23,25,27,29,-1,-1,-1,-1,-1,-1,-1,-1,-1,-1,-1,-1,-1,-1,-1,-1],"loss_changes":[8.353605E3,2.8655E3,8.422821E3,1.8485101E3,1.366874E3,5.2520605E3,2.5453655E3,1.4566782E3,1.9486686E3,1.542748E3,1.3534939E3,5.187812E3,5.1472227E3,1.3679312E3,5.085811E3,0E0,0E0,0E0,0E0,0E0,0E0,0E0,0E0,0E0,0E0,0E0,0E0,0E0,0E0,0E0,0E0],"parents":[2147483647,0,0,1,1,2,2,3,3,4,4,5,5,6,6,7,7,8,8,9,9,10,10,11,11,12,12,13,13,14,14],"right_children":[2,4,6,8,10,12,14,16,18,20,22,24,26,28,30,-1,-1,-1,-1,-1,-1,-1,-1,-1,-1,-1,-1,-1,-1,-1,-1],"split_conditions":[7.0988053E-1,3.8221896E-2,2.2949133E1,1.868392E-2,2.658254E0,5.630474E-2,2.692261E1,5.0244393E0,7.4722874E-1,1.2330834E1,1.7417806E-1,1.3097152E-2,3.4021368E0,1.517565E-1,1.7956242E-2,-7.230597E-3,-7.22054E-2,2.4500763E-2,-5.2046534E-3,2.0460248E-2,4.7834054E-2,2.0258319E-2,-7.369716E-2,3.1608846E-2,-6.392367E-3,-3.3863056E-2,-8.923409E-3,2.9343883E-2,-2.5838E-3,1.046417E-2,-5.134329E-2],"split_indices":[3,0,5,4,4,5,2,7,2,9,3,4,5,4,4,0,0,0,0,0,0,0,0,0,0,0,0,0,0,0,0],"split_type":[0,0,0,0,0,0,0,0,0,0,0,0,0,0,0,0,0,0,0,0,0,0,0,0,0,0,0,0,0,0,0],"sum_hessian":[2.8729353E5,7.886923E4,2.084243E5,3.4869156E4,4.400007E4,1.5545033E5,5.297398E4,1.2253045E4,2.2616111E4,4.24619E4,1.5381686E3,6.981709E4,8.563323E4,2.4465906E4,2.8508072E4,1.1320249E4,9.32796E2,1.304578E4,9.570332E3,3.6468906E4,5.992992E3,8.1975543E2,7.1841315E2,1.0585214E4,5.9231883E4,3.4966785E4,5.066644E4,2.0453062E4,4.0128442E3,2.4661572E4,3.8464995E3],"tree_param":{"num_deleted":"0","num_feature":"10","num_nodes":"31","size_leaf_vector":"1"}},{"base_weights":[2.9635798E-2,1.172778E-1,-2.3622973E-1,3.8055637E-1,1.1626311E-2,-4.589987E-1,1.2220378E-2,3.929515E-2,4.6460563E-1,1.3341384E-1,-2.9855046E-1,-1.163068E-1,-7.6790994E-1,-9.186666E-2,7.10851E-1,-1.0701131E-2,2.601692E-2,2.0179478E-2,4.183656E-2,3.6584985E-2,3.8312275E-3,-2.1156844E-2,2.07133E-2,8.599825E-3,-2.9876826E-2,-4.6212085E-2,-5.8305E-3,5.359987E-3,-2.0600088E-2,4.6270393E-2,-2.8031E-2],"categories":[],"categories_nodes":[],"categories_segments":[],"categories_sizes":[],"default_left":[0,0,0,0,0,0,0,0,0,0,0,0,0,0,0,0,0,0,0,0,0,0,0,0,0,0,0,0,0,0,0],"id":31,"left_children":[1,3,5,7,9,11,13,15,17,19,21,23,25,27,29,-1,-1,-1,-1,-1,-1,-1,-1,-1,-1,-1,-1,-1,-1,-1,-1],"loss_changes":[6.7391074E3,6.050369E3,3.9685918E3,1.7866475E3,5.8638164E3,4.0020864E3,2.4651423E3,1.5002747E3,1.1345049E3,3.787025E3,3.8867925E3,2.486896E3,2.0243252E3,1.880293E3,1.1996865E3,0E0,0E0,0E0,0E0,0E0,0E0,0E0,0E0,0E0,0E0,0E0,0E0,0E0,0E0,0E0,0E0],"parents":[2147483647,0,0,1,1,2,2,3,3,4,4,5,5,6,6,7,7,8,8,9,9,10,10,11,11,12,12,13,13,14,14],"right_children":[2,4,6,8,10,12,14,16,18,20,22,24,26,28,30,-1,-1,-1,-1,-1,-1,-1,-1,-1,-1,-1,-1,-1,-1,-1,-1],"split_conditions":[3.2333815E-1,3.7915466E0,5.990002E0,4.8428002E-1,7.703064E-2,1.6962425E0,2.426E2,3.7086399E0,7.1887283E0,8.398397E0,1.0357484E1,1.1086794E0,2.147448E0,1.1664103E0,7.148888E0,-1.0701131E-2,2.601692E-2,2.0179478E-2,4.183656E-2,3.6584985E-2,3.8312275E-3,-2.1156844E-2,2.07133E-2,8.599825E-3,-2.9876826E-2,-4.6212085E-2,-5.8305E-3,5.359987E-3,-2.0600088E-2,4.6270393E-2,-2.8031E-2],"split_indices":[4,2,9,2,4,2,1,9,9,2,9,4,8,4,5,0,0,0,0,0,0,0,0,0,0,0,0,0,0,0,0],"split_type":[0,0,0,0,0,0,0,0,0,0,0,0,0,0,0,0,0,0,0,0,0,0,0,0,0,0,0,0,0,0,0],"sum_hessian":[2.8921766E5,2.1751489E5,7.170276E4,6.2289574E4,1.5522531E5,3.780481E4,3.389795E4,1.2309869E4,4.9979707E4,1.1146167E5,4.376364E4,1.792311E4,1.9881697E4,2.9503217E4,4.3947334E3,8.0639443E3,4.2459243E3,4.2940926E4,7.0387827E3,9.661722E3,1.01799945E5,3.7252957E4,6.5106846E3,1.1208671E4,6.714439E3,1.6032897E4,3.8488005E3,1.8191836E4,1.1311381E4,3.7604426E3,6.342908E2],"tree_param":{"num_deleted":"0","num_feature":"10","num_nodes":"31","size_leaf_vector":"1"}},{"base_weights":[-4.7174096E-3,2.904506E-1,-1.1797967E-1,-4.6100784E-2,3.93449E-1,2.0885168E-2,-3.3857358E-1,1.0234478E-1,-6.857527E-1,4.2080754E-1,-5.958728E-1,4.6449074E-1,-9.83546E-2,-5.932242E-1,-1.0190211E-1,1.0037213E-2,-2.229215E-2,-7.1278654E-2,-4.978359E-3,1.687786E-2,3.7001558E-2,-7.555627E-2,2.9402604E-2,-1.156912E-2,3.49482E-2,-1.30860405E-2,8.939437E-3,-4.008183E-2,-9.004573E-3,2.471009E-3,-3.439344E-2],"categories":[],"categories_nodes":[],"categories_segments":[],"categories_sizes":[],"default_left":[0,0,0,0,0,0,0,0,0,0,0,0,0,0,0,0,0,0,0,0,0,0,0,0,0,0,0,0,0,0,0],"id":32,"left_children":[1,3,5,7,9,11,13,15,17,19,21,23,25,27,29,-1,-1,-1,-1,-1,-1,-1,-1,-1,-1,-1,-1,-1,-1,-1,-1],"loss_changes":[9.4775625E3,2.7251748E3,6.2759546E3,1.7493689E3,1.6294854E3,6.6506226E3,4.770041E3,8.067007E2,1.504794E3,1.5564033E3,1.7565374E3,4.3462607E3,4.486667E3,3.2825283E3,3.6375437E3,0E0,0E0,0E0,0E0,0E0,0E0,0E0,0E0,0E0,0E0,0E0,0E0,0E0,0E0,0E0,0E0],"parents":[2147483647,0,0,1,1,2,2,3,3,4,4,5,5,6,6,7,7,8,8,9,9,10,10,11,11,12,12,13,13,14,14],"right_children":[2,4,6,8,10,12,14,16,18,20,22,24,26,28,30,-1,-1,-1,-1,-1,-1,-1,-1,-1,-1,-1,-1,-1,-1,-1,-1],"split_conditions":[6.7969346E-1,2.1646934E-2,1.6412532E-1,1.0051681E-2,2.658254E0,5.4574876E0,4.4179225E0,2.478309E-2,1.5662114E-1,5.5252447E0,3.8790216E0,7.8267485E-2,9.725309E-1,1.0011868E0,1.3735026E0,1.0037213E-2,-2.229215E-2,-7.1278654E-2,-4.978359E-3,1.687786E-2,3.7001558E-2,-7.555627E-2,2.9402604E-2,-1.156912E-2,3.49482E-2,-1.30860405E-2,8.939437E-3,-4.008183E-2,-9.004573E-3,2.471009E-3,-3.439344E-2],"split_indices":[3,1,4,0,4,3,9,3,6,9,8,1,0,6,4,0,0,0,0,0,0,0,0,0,0,0,0,0,0,0,0],"split_type":[0,0,0,0,0,0,0,0,0,0,0,0,0,0,0,0,0,0,0,0,0,0,0,0,0,0,0,0,0,0,0],"sum_hessian":[2.8349088E5,7.8614734E4,2.0487612E5,1.8421691E4,6.0193047E4,1.2572966E5,7.914647E4,1.4952474E4,3.4692168E3,5.8573832E4,1.6192145E3,2.6635434E4,9.909423E4,3.8124387E4,4.1022086E4,1.2677502E4,2.2749724E3,1.5329987E3,1.936218E3,4.645967E4,1.211416E4,9.1307245E2,7.06142E2,6.7128765E3,1.9922557E4,6.2344438E4,3.6749785E4,2.5340146E4,1.2784238E4,3.2603379E4,8.418706E3],"tree_param":{"num_deleted":"0","num_feature":"10","num_nodes":"31","size_leaf_vector":"1"}},{"base_weights":[1.4960287E-3,7.3004186E-2,-3.2688013E-1,2.945218E-2,6.1656016E-1,9.1758505E-2,-4.1849107E-1,-6.6622965E-2,2.5650984E-1,8.598327E-1,2.2935939E-1,3.3162254E-1,-3.5314903E-1,-3.7424868E-1,-1.1139607E0,9.760364E-3,-1.1847529E-2,2.7019972E-2,6.88208E-3,4.5197174E-2,-9.910127E-4,-7.5927384E-2,2.0322738E-2,1.1767669E-2,1.2881571E-1,-9.485328E-2,-2.2323774E-3,-1.9911138E-2,7.111061E-2,-6.483033E-2,1.04583144E-1],"categories":[],"categories_nodes":[],"categories_segments":[],"categories_sizes":[],"default_left":[0,0,0,0,0,0,0,0,0,0,0,0,0,0,0,0,0,0,0,0,0,0,0,0,0,0,0,0,0,0,0],"id":33,"left_children":[1,3,5,7,9,11,13,15,17,19,21,23,25,27,29,-1,-1,-1,-1,-1,-1,-1,-1,-1,-1,-1,-1,-1,-1,-1,-1],"loss_changes":[6.6485195E3,5.5040947E3,1.9418438E3,4.695828E3,1.6244282E3,9.703092E2,1.2777695E3,6.745724E3,2.1597085E3,4.1101123E2,2.06108E3,1.275917E3,1.5169287E3,1.6827363E3,1.4571243E3,0E0,0E0,0E0,0E0,0E0,0E0,0E0,0E0,0E0,0E0,0E0,0E0,0E0,0E0,0E0,0E0],"parents":[2147483647,0,0,1,1,2,2,3,3,4,4,5,5,6,6,7,7,8,8,9,9,10,10,11,11,12,12,13,13,14,14],"right_children":[2,4,6,8,10,12,14,16,18,20,22,24,26,28,30,-1,-1,-1,-1,-1,-1,-1,-1,-1,-1,-1,-1,-1,-1,-1,-1],"split_conditions":[4.924852E-1,1.302118E1,7.4722874E-1,2.2949133E1,4.09986E0,5.9909705E-2,4.6005745E0,2.6020408E-3,7.930255E0,6.529563E0,5.6816936E0,5.298456E-2,1.8698816E0,4.4649386E0,5.2409763E1,9.760364E-3,-1.1847529E-2,2.7019972E-2,6.88208E-3,4.5197174E-2,-9.910127E-4,-7.5927384E-2,2.0322738E-2,1.1767669E-2,1.2881571E-1,-9.485328E-2,-2.2323774E-3,-1.9911138E-2,7.111061E-2,-6.483033E-2,1.04583144E-1],"split_indices":[4,9,2,5,8,8,2,6,2,6,6,8,8,2,2,0,0,0,0,0,0,0,0,0,0,0,0,0,0,0,0],"split_type":[0,0,0,0,0,0,0,0,0,0,0,0,0,0,0,0,0,0,0,0,0,0,0,0,0,0,0,0,0,0,0],"sum_hessian":[2.8313572E5,2.3250544E5,5.0630285E4,2.1525902E5,1.724641E4,9.090234E3,4.154005E4,1.5125784E5,6.400118E4,1.0591012E4,6.655398E3,5.9062427E3,3.1839917E3,3.9056977E4,2.4830764E3,5.961563E4,9.164221E4,1.8887994E4,4.5113188E4,1.0085252E4,5.0575922E2,6.1158295E2,6.043815E3,5.664415E3,2.4182765E2,5.29404E2,2.6545876E3,3.8543387E4,5.1359033E2,2.3497886E3,1.3328773E2],"tree_param":{"num_deleted":"0","num_feature":"10","num_nodes":"31","size_leaf_vector":"1"}},{"base_weights":[8.599684E-3,2.7656928E-1,-9.418646E-2,5.2305616E-2,4.1702518E-1,-2.1927196E-1,1.0094404E-1,8.65656E-2,-1.7225711E0,3.0221727E-1,6.1338395E-1,1.4460441E-2,-5.102703E-1,-8.8587955E-2,2.8418037E-1,2.3466518E-2,-1.2470402E-3,-1.16019964E-1,3.091452E-2,2.631851E-2,4.9159233E-4,3.212249E-2,-4.9990535E-2,-2.3194207E-3,3.8457993E-2,-4.082146E-2,-1.6475083E-2,-1.48038E-3,-4.5819353E-2,2.2865811E-2,1.9362065E-3],"categories":[],"categories_nodes":[],"categories_segments":[],"categories_sizes":[],"default_left":[0,0,0,0,0,0,0,0,0,0,0,0,0,0,0,0,0,0,0,0,0,0,0,0,0,0,0,0,0,0,0],"id":34,"left_children":[1,3,5,7,9,11,13,15,17,19,21,23,25,27,29,-1,-1,-1,-1,-1,-1,-1,-1,-1,-1,-1,-1,-1,-1,-1,-1],"loss_changes":[7.818189E3,2.4787222E3,5.0074634E3,1.842979E3,1.0906348E3,8.503091E3,2.7832327E3,1.2690432E3,8.046537E2,2.0013157E3,8.377002E2,3.1838933E3,3.0816387E3,1.9233513E3,1.7316255E3,0E0,0E0,0E0,0E0,0E0,0E0,0E0,0E0,0E0,0E0,0E0,0E0,0E0,0E0,0E0,0E0],"parents":[2147483647,0,0,1,1,2,2,3,3,4,4,5,5,6,6,7,7,8,8,9,9,10,10,11,11,12,12,13,13,14,14],"right_children":[2,4,6,8,10,12,14,16,18,20,22,24,26,28,30,-1,-1,-1,-1,-1,-1,-1,-1,-1,-1,-1,-1,-1,-1,-1,-1],"split_conditions":[7.0988053E-1,1.0428734E-1,8.521811E0,9.086387E-2,9.322831E0,5.630474E-2,1.026838E0,2.6020408E-3,2.7663666E2,2.6020408E-3,4.2500238E2,3.7506644E2,1.4372737E0,7.3892527E0,2.5441136E0,2.3466518E-2,-1.2470402E-3,-1.16019964E-1,3.091452E-2,2.631851E-2,4.9159233E-4,3.212249E-2,-4.9990535E-2,-2.3194207E-3,3.8457993E-2,-4.082146E-2,-1.6475083E-2,-1.48038E-3,-4.5819353E-2,2.2865811E-2,1.9362065E-3],"split_indices":[3,1,5,1,5,5,7,6,5,6,2,1,5,6,6,0,0,0,0,0,0,0,0,0,0,0,0,0,0,0,0],"split_type":[0,0,0,0,0,0,0,0,0,0,0,0,0,0,0,0,0,0,0,0,0,0,0,0,0,0,0,0,0,0,0],"sum_hessian":[2.838462E5,7.8691375E4,2.051548E5,3.0305094E4,4.838628E4,1.25015414E5,8.013938E4,2.9732133E4,5.729603E2,3.0535307E4,1.7850977E4,6.932995E4,5.5685465E4,3.939321E4,4.074617E4,6.706775E3,2.3025357E4,4.5640793E2,1.1655241E2,1.7283992E4,1.3251313E4,1.7535629E4,3.153471E2,6.4158043E4,5.1719067E3,2.0671559E4,3.5013906E4,3.6774105E4,2.6191047E3,2.3892451E4,1.6853723E4],"tree_param":{"num_deleted":"0","num_feature":"10","num_nodes":"31","size_leaf_vector":"1"}},{"base_weights":[8.995143E-3,4.1365463E-1,-6.1107237E-2,5.635359E-1,9.67395E-2,-1.13713995E-1,3.4630764E-1,2.9398575E-1,6.5012276E-1,-5.1549375E-1,2.3035115E-1,-2.2259673E-1,1.00414656E-1,5.374816E-1,-8.640646E-2,2.2969505E-2,-7.155956E-2,2.8696714E-2,3.680466E-2,-8.613905E-3,-9.714324E-2,1.5382658E-2,-3.0100977E-2,2.2388017E-3,-1.6338577E-2,1.1305618E-2,-6.4549926E-3,4.046795E-2,1.6498988E-2,1.0929787E-2,-4.2672943E-2],"categories":[],"categories_nodes":[],"categories_segments":[],"categories_sizes":[],"default_left":[0,0,0,0,0,0,0,0,0,0,0,0,0,0,0,0,0,0,0,0,0,0,0,0,0,0,0,0,0,0,0],"id":35,"left_children":[1,3,5,7,9,11,13,15,17,19,21,23,25,27,29,-1,-1,-1,-1,-1,-1,-1,-1,-1,-1,-1,-1,-1,-1,-1,-1],"loss_changes":[8.0052783E3,1.9791987E3,5.155251E3,6.600674E2,1.094658E3,4.966655E3,2.2754846E3,1.9638081E3,1.398164E2,1.1740919E3,7.069475E2,3.9333975E3,2.0716538E3,1.0760195E3,1.9722902E3,0E0,0E0,0E0,0E0,0E0,0E0,0E0,0E0,0E0,0E0,0E0,0E0,0E0,0E0,0E0,0E0],"parents":[2147483647,0,0,1,1,2,2,3,3,4,4,5,5,6,6,7,7,8,8,9,9,10,10,11,11,12,12,13,13,14,14],"right_children":[2,4,6,8,10,12,14,16,18,20,22,24,26,28,30,-1,-1,-1,-1,-1,-1,-1,-1,-1,-1,-1,-1,-1,-1,-1,-1],"split_conditions":[-7.843303E-1,4.0824485E0,1.302118E1,2.8882287E-2,9.761963E-3,9.862069E0,8.781565E-1,1.0051681E-2,2.6333666E-1,-4.635765E0,3.2041368E0,2.9428633E-2,3.0373678E1,3.9658065E0,4.9591613E0,2.2969505E-2,-7.155956E-2,2.8696714E-2,3.680466E-2,-8.613905E-3,-9.714324E-2,1.5382658E-2,-3.0100977E-2,2.2388017E-3,-1.6338577E-2,1.1305618E-2,-6.4549926E-3,4.046795E-2,1.6498988E-2,1.0929787E-2,-4.2672943E-2],"split_indices":[3,2,9,1,1,5,4,0,9,9,6,4,3,3,6,0,0,0,0,0,0,0,0,0,0,0,0,0,0,0,0],"split_type":[0,0,0,0,0,0,0,0,0,0,0,0,0,0,0,0,0,0,0,0,0,0,0,0,0,0,0,0,0,0,0],"sum_hessian":[2.8219616E5,4.1667793E4,2.4052836E5,2.8288361E4,1.3379432E4,2.1302286E5,2.7505496E4,6.8787554E3,2.1409605E4,2.3962974E3,1.0983134E4,1.4121573E5,7.1807125E4,1.9076998E4,8.428498E3,6.2776123E3,6.011433E2,1.1354621E4,1.0054984E4,1.9326956E3,4.636017E2,1.0050389E4,9.32746E2,3.959435E4,1.0162138E5,4.6397E4,2.5410129E4,8.256323E3,1.0820674E4,6.031081E3,2.397417E3],"tree_param":{"num_deleted":"0","num_feature":"10","num_nodes":"31","size_leaf_vector":"1"}},{"base_weights":[1.5301263E-2,3.7246183E-1,-4.3873552E-2,1.7645095E-1,5.6432015E-1,1.1730762E-1,-1.6750439E-1,-1.8811321E-1,4.2465687E-1,5.6971914E-1,-2.3031723E0,4.282023E-1,1.1318423E-2,-8.876104E-2,-7.237157E-1,-7.411599E-3,-1.6101182E-1,3.2514036E-2,7.789238E-3,2.9950052E-2,4.236821E-3,-1.2712057E-1,-8.481833E-2,4.713002E-3,2.8761316E-2,-1.4035299E-2,1.0145462E-2,-1.109276E-2,9.432886E-3,-5.0890077E-2,2.5378896E-3],"categories":[],"categories_nodes":[],"categories_segments":[],"categories_sizes":[],"default_left":[0,0,0,0,0,0,0,0,0,0,0,0,0,0,0,0,0,0,0,0,0,0,0,0,0,0,0,0,0,0,0],"id":36,"left_children":[1,3,5,7,9,11,13,15,17,19,21,23,25,27,29,-1,-1,-1,-1,-1,-1,-1,-1,-1,-1,-1,-1,-1,-1,-1,-1],"loss_changes":[5.9677046E3,1.5091514E3,4.826924E3,1.7965243E3,3.1529053E2,3.4647568E3,6.0039067E3,9.7203516E2,7.164485E2,2.8743164E2,1.2489166E0,1.31246E3,4.387346E3,4.433891E3,3.8720312E3,0E0,0E0,0E0,0E0,0E0,0E0,0E0,0E0,0E0,0E0,0E0,0E0,0E0,0E0,0E0,0E0],"parents":[2147483647,0,0,1,1,2,2,3,3,4,4,5,5,6,6,7,7,8,8,9,9,10,10,11,11,12,12,13,13,14,14],"right_children":[2,4,6,8,10,12,14,16,18,20,22,24,26,28,30,-1,-1,-1,-1,-1,-1,-1,-1,-1,-1,-1,-1,-1,-1,-1,-1],"split_conditions":[-7.843303E-1,1.6062811E-1,6.1656903E-2,2.7471896E-2,1.4539765E0,2.6020408E-3,8.093848E0,1.3446385E-1,1.0645117E0,2.6582266E1,2.4137673E0,1.700638E-1,9.531159E-1,5.799825E0,2.8580084E1,-7.411599E-3,-1.6101182E-1,3.2514036E-2,7.789238E-3,2.9950052E-2,4.236821E-3,-1.2712057E-1,-8.481833E-2,4.713002E-3,2.8761316E-2,-1.4035299E-2,1.0145462E-2,-1.109276E-2,9.432886E-3,-5.0890077E-2,2.5378896E-3],"split_indices":[3,1,4,4,4,6,3,1,2,7,4,0,7,5,5,0,0,0,0,0,0,0,0,0,0,0,0,0,0,0,0],"split_type":[0,0,0,0,0,0,0,0,0,0,0,0,0,0,0,0,0,0,0,0,0,0,0,0,0,0,0,0,0,0,0],"sum_hessian":[2.823607E5,4.01319E4,2.422288E5,1.985207E4,2.0279826E4,1.0514639E5,1.370824E5,8.041289E3,1.1810781E4,2.0242514E4,3.7311726E1,2.6731805E4,7.8414586E4,1.20083266E5,1.6999137E4,7.937931E3,1.03357994E2,6.4211006E3,5.389681E3,1.9089695E4,1.152818E3,2.4473133E1,1.2838592E1,8.1720024E3,1.8559803E4,3.106483E4,4.7349754E4,8.115069E4,3.8932574E4,1.2320456E4,4.6786816E3],"tree_param":{"num_deleted":"0","num_feature":"10","num_nodes":"31","size_leaf_vector":"1"}},{"base_weights":[1.8147351E-2,3.9575797E-1,-4.226683E-2,8.274216E-2,5.0631607E-1,4.9913783E-2,-2.8854704E-1,1.458115E-1,-2.1658604E0,5.608161E-1,-1.1479846E-1,-6.391139E-2,2.5620198E-1,-6.3403887E-1,-4.2268563E-2,-7.1082483E-3,2.3309551E-2,-1.0314188E-1,-1.2989463E-1,2.8902316E-2,1.7509852E-3,-5.997793E-2,1.5353972E-2,-1.182323E-2,8.494953E-3,2.6203547E-2,6.178097E-3,-4.1259255E-2,-7.1255327E-3,-7.2291666E-3,2.590998E-2],"categories":[],"categories_nodes":[],"categories_segments":[],"categories_sizes":[],"default_left":[0,0,0,0,0,0,0,0,0,0,0,0,0,0,0,0,0,0,0,0,0,0,0,0,0,0,0,0,0,0,0],"id":37,"left_children":[1,3,5,7,9,11,13,15,17,19,21,23,25,27,29,-1,-1,-1,-1,-1,-1,-1,-1,-1,-1,-1,-1,-1,-1,-1,-1],"loss_changes":[6.4473154E3,1.3488989E3,5.531107E3,1.4433591E3,9.751406E2,4.162741E3,5.645938E3,9.133334E2,7.000122E0,2.3989258E2,1.0641268E3,4.60924E3,2.2396768E3,2.5944229E3,2.221644E3,0E0,0E0,0E0,0E0,0E0,0E0,0E0,0E0,0E0,0E0,0E0,0E0,0E0,0E0,0E0,0E0],"parents":[2147483647,0,0,1,1,2,2,3,3,4,4,5,5,6,6,7,7,8,8,9,9,10,10,11,11,12,12,13,13,14,14],"right_children":[2,4,6,8,10,12,14,16,18,20,22,24,26,28,30,-1,-1,-1,-1,-1,-1,-1,-1,-1,-1,-1,-1,-1,-1,-1,-1],"split_conditions":[-1.119354E0,2.6932845E-2,3.1121448E-1,1.4711443E-1,7.418169E1,1.7134784E0,4.4179225E0,3.5807524E-2,1.9219571E-1,1.433799E2,1.3048196E-1,9.531159E-1,5.1977295E-1,1.0436232E0,1.3137772E2,-7.1082483E-3,2.3309551E-2,-1.0314188E-1,-1.2989463E-1,2.8902316E-2,1.7509852E-3,-5.997793E-2,1.5353972E-2,-1.182323E-2,8.494953E-3,2.6203547E-2,6.178097E-3,-4.1259255E-2,-7.1255327E-3,-7.2291666E-3,2.590998E-2],"split_indices":[3,1,4,0,2,9,9,4,9,7,1,7,7,7,1,0,0,0,0,0,0,0,0,0,0,0,0,0,0,0,0],"split_type":[0,0,0,0,0,0,0,0,0,0,0,0,0,0,0,0,0,0,0,0,0,0,0,0,0,0,0,0,0,0,0],"sum_hessian":[2.8261366E5,3.8978473E4,2.4363519E5,1.0174328E4,2.8804145E4,1.7728114E5,6.635404E4,9.897651E3,2.766765E2,2.6480682E4,2.323463E3,1.1424437E5,6.3036777E4,2.7614066E4,3.8739973E4,5.21271E3,4.684942E3,2.2806635E2,4.8610172E1,2.5640354E4,8.4032904E2,6.500831E2,1.6733798E3,6.5733055E4,4.8511316E4,2.0875459E4,4.2161316E4,1.9881746E4,7.7323193E3,3.2760256E4,5.9797188E3],"tree_param":{"num_deleted":"0","num_feature":"10","num_nodes":"31","size_leaf_vector":"1"}},{"base_weights":[1.29072955E-2,3.5846397E-1,-5.6904603E-2,-3.10161E-3,4.598449E-1,-1.4085518E-1,1.7888798E-1,-6.9038564E-1,2.2267184E-1,3.1866944E-1,5.817001E-1,-2.1763086E-1,2.0716792E-1,5.929896E-1,5.1168095E-2,-2.2115098E-2,-1.0851475E-1,1.4218735E-2,-1.311226E-1,1.6534269E-2,-1.8327624E-1,-1.7357954E-1,2.931619E-2,-1.381278E-3,-2.1943258E-2,1.6786082E-2,-1.4299723E-2,3.4721006E-2,1.7854832E-3,8.876452E-3,-2.116213E-2],"categories":[],"categories_nodes":[],"categories_segments":[],"categories_sizes":[],"default_left":[0,0,0,0,0,0,0,0,0,0,0,0,0,0,0,0,0,0,0,0,0,0,0,0,0,0,0,0,0,0,0],"id":38,"left_children":[1,3,5,7,9,11,13,15,17,19,21,23,25,27,29,-1,-1,-1,-1,-1,-1,-1,-1,-1,-1,-1,-1,-1,-1,-1,-1],"loss_changes":[6.7696562E3,1.7288491E3,4.6212554E3,1.6029929E3,6.335005E2,4.600131E3,3.2418333E3,9.3688354E2,1.3658557E3,8.182881E2,3.725376E2,5.9289487E3,1.9727747E3,8.166904E2,2.8084656E3,0E0,0E0,0E0,0E0,0E0,0E0,0E0,0E0,0E0,0E0,0E0,0E0,0E0,0E0,0E0,0E0],"parents":[2147483647,0,0,1,1,2,2,3,3,4,4,5,5,6,6,7,7,8,8,9,9,10,10,11,11,12,12,13,13,14,14],"right_children":[2,4,6,8,10,12,14,16,18,20,22,24,26,28,30,-1,-1,-1,-1,-1,-1,-1,-1,-1,-1,-1,-1,-1,-1,-1,-1],"split_conditions":[-1.437874E-3,-5.9780145E0,1.0766827E0,2.3346463E-2,2.2294529E-1,9.889638E0,1.4555182E0,1.2374074E-2,1.433799E2,2.115522E-1,-5.7141647E0,8.874228E-2,6.8631244E0,9.6144545E-1,2.2009964E-1,-2.2115098E-2,-1.0851475E-1,1.4218735E-2,-1.311226E-1,1.6534269E-2,-1.8327624E-1,-1.7357954E-1,2.931619E-2,-1.381278E-3,-2.1943258E-2,1.6786082E-2,-1.4299723E-2,3.4721006E-2,1.7854832E-3,8.876452E-3,-2.116213E-2],"split_indices":[3,9,7,1,1,9,3,1,7,1,9,4,8,4,4,0,0,0,0,0,0,0,0,0,0,0,0,0,0,0,0],"split_type":[0,0,0,0,0,0,0,0,0,0,0,0,0,0,0,0,0,0,0,0,0,0,0,0,0,0,0,0,0,0,0],"sum_hessian":[2.8061766E5,4.7163324E4,2.3345434E5,1.0328536E4,3.683479E4,1.7215973E5,6.1294605E4,2.553448E3,7.7750884E3,1.7066266E4,1.9768521E4,1.4104488E5,3.1114855E4,1.4447698E4,4.6846906E4,2.187968E3,3.6547983E2,7.6109287E3,1.6415991E2,1.7015865E4,5.0401207E1,2.1670319E1,1.9746852E4,7.587842E4,6.5166453E4,2.4681416E4,6.433439E3,1.2222784E4,2.2249138E3,3.699404E4,9.852865E3],"tree_param":{"num_deleted":"0","num_feature":"10","num_nodes":"31","size_leaf_vector":"1"}},{"base_weights":[1.2233623E-3,2.2226441E-1,-9.767226E-2,2.7919546E-1,-4.1083428E-1,2.4529835E-2,-3.1878015E-1,5.96124E-1,1.3839269E-1,-8.54041E-1,2.9421905E-1,4.9874187E-1,-8.834435E-2,-5.3770024E-1,-9.468012E-2,2.375844E-2,5.036343E-2,-2.8233869E-2,1.814988E-2,4.860741E-2,-5.1843442E-2,2.981059E-2,-7.23419E-2,2.600119E-2,-1.2693185E-1,7.841362E-3,-1.4301463E-2,-1.7485429E-2,-5.3750526E-2,2.1131295E-3,-2.6726756E-2],"categories":[],"categories_nodes":[],"categories_segments":[],"categories_sizes":[],"default_left":[0,0,0,0,0,0,0,0,0,0,0,0,0,0,0,0,0,0,0,0,0,0,0,0,0,0,0,0,0,0,0],"id":39,"left_children":[1,3,5,7,9,11,13,15,17,19,21,23,25,27,29,-1,-1,-1,-1,-1,-1,-1,-1,-1,-1,-1,-1,-1,-1,-1,-1],"loss_changes":[6.075132E3,3.0963882E3,5.187979E3,3.517127E3,2.2151465E3,6.619205E3,3.352958E3,1.2052236E3,8.61817E3,1.4541904E3,1.4397225E3,1.538206E3,4.841253E3,3.4917275E3,2.0344094E3,0E0,0E0,0E0,0E0,0E0,0E0,0E0,0E0,0E0,0E0,0E0,0E0,0E0,0E0,0E0,0E0],"parents":[2147483647,0,0,1,1,2,2,3,3,4,4,5,5,6,6,7,7,8,8,9,9,10,10,11,11,12,12,13,13,14,14],"right_children":[2,4,6,8,10,12,14,16,18,20,22,24,26,28,30,-1,-1,-1,-1,-1,-1,-1,-1,-1,-1,-1,-1,-1,-1,-1,-1],"split_conditions":[1.0482556E0,1.3735026E0,1.6412532E-1,2.6020408E-3,1.1691559E1,5.269442E0,5.1151414E0,6.496246E0,9.6745324E-1,-1.119354E0,6.197632E0,6.211947E0,1.2473524E-2,3.8430696E0,1.1664103E0,2.375844E-2,5.036343E-2,-2.8233869E-2,1.814988E-2,4.860741E-2,-5.1843442E-2,2.981059E-2,-7.23419E-2,2.600119E-2,-1.2693185E-1,7.841362E-3,-1.4301463E-2,-1.7485429E-2,-5.3750526E-2,2.1131295E-3,-2.6726756E-2],"split_indices":[3,4,4,6,9,3,9,9,7,3,6,8,4,3,4,0,0,0,0,0,0,0,0,0,0,0,0,0,0,0,0],"split_type":[0,0,0,0,0,0,0,0,0,0,0,0,0,0,0,0,0,0,0,0,0,0,0,0,0,0,0,0,0,0,0],"sum_hessian":[2.77909E5,8.590406E4,1.9200492E5,7.881705E4,7.087019E3,1.2366084E5,6.8344086E4,2.4243922E4,5.4573125E4,4.3514336E3,2.7355854E3,2.3774584E4,9.988626E4,3.457089E4,3.37732E4,1.8734537E4,5.5093843E3,1.3212659E4,4.1360465E4,3.9560327E2,3.9558303E3,2.331786E3,4.0379935E2,2.3609984E4,1.64599E2,4.4587914E4,5.5298344E4,2.5611652E4,8.959237E3,2.575549E4,8.017708E3],"tree_param":{"num_deleted":"0","num_feature":"10","num_nodes":"31","size_leaf_vector":"1"}},{"base_weights":[-9.264362E-4,2.3310941E-1,-1.06117636E-1,1.6759089E-1,6.5303814E-1,-1.8083712E-1,1.4586572E-1,3.580023E-1,1.9658973E-2,5.1347303E-1,1.3530315E0,-5.5004326E-3,-3.1131196E-1,3.4457415E-1,-1.3713959E-1,2.2265075E-2,-9.550326E-3,-1.0323258E-2,1.4069666E-2,2.7475297E-2,-6.468624E-2,5.4178514E-2,1.0560005E-1,-5.95378E-2,2.0255188E-3,-3.0011296E-2,-3.333424E-3,4.227894E-2,8.438892E-3,6.884719E-3,-3.085588E-2],"categories":[],"categories_nodes":[],"categories_segments":[],"categories_sizes":[],"default_left":[0,0,0,0,0,0,0,0,0,0,0,0,0,0,0,0,0,0,0,0,0,0,0,0,0,0,0,0,0,0,0],"id":40,"left_children":[1,3,5,7,9,11,13,15,17,19,21,23,25,27,29,-1,-1,-1,-1,-1,-1,-1,-1,-1,-1,-1,-1,-1,-1,-1,-1],"loss_changes":[6.8201772E3,2.3634282E3,3.5986096E3,2.0932332E3,1.1319736E3,3.3724492E3,2.4582803E3,1.5573306E3,2.475303E3,6.3029224E2,3.9175195E2,3.4300776E3,5.9739854E3,2.2617607E3,2.378833E3,0E0,0E0,0E0,0E0,0E0,0E0,0E0,0E0,0E0,0E0,0E0,0E0,0E0,0E0,0E0,0E0],"parents":[2147483647,0,0,1,1,2,2,3,3,4,4,5,5,6,6,7,7,8,8,9,9,10,10,11,11,12,12,13,13,14,14],"right_children":[2,4,6,8,10,12,14,16,18,20,22,24,26,28,30,-1,-1,-1,-1,-1,-1,-1,-1,-1,-1,-1,-1,-1,-1,-1,-1],"split_conditions":[1.0246633E0,1.0123123E1,2.9437656E1,-2.0642276E0,1.092737E0,5.630474E-2,2.3184917E0,5.2409763E1,9.7358996E-1,3.9666936E0,9.79031E-1,1.3897439E0,5.326164E0,1.79455E1,2.692261E1,2.2265075E-2,-9.550326E-3,-1.0323258E-2,1.4069666E-2,2.7475297E-2,-6.468624E-2,5.4178514E-2,1.0560005E-1,-5.95378E-2,2.0255188E-3,-3.0011296E-2,-3.333424E-3,4.227894E-2,8.438892E-3,6.884719E-3,-3.085588E-2],"split_indices":[3,9,5,3,2,5,6,2,7,7,3,2,5,3,2,0,0,0,0,0,0,0,0,0,0,0,0,0,0,0,0],"split_type":[0,0,0,0,0,0,0,0,0,0,0,0,0,0,0,0,0,0,0,0,0,0,0,0,0,0,0,0,0,0,0],"sum_hessian":[2.770325E5,8.590486E4,1.9112764E5,7.431189E4,1.1592964E4,1.4741547E5,4.371216E4,3.2490342E4,4.182155E4,9.667237E3,1.9257266E3,6.2895426E4,8.452005E4,2.568063E4,1.8031531E4,2.8032947E4,4.457395E3,2.2437229E4,1.9384324E4,9.4789375E3,1.8830022E2,1.4229545E3,5.0277206E2,2.34939E3,6.0546035E4,3.8752945E4,4.5767105E4,6.669451E3,1.901118E4,1.1466538E4,6.5649927E3],"tree_param":{"num_deleted":"0","num_feature":"10","num_nodes":"31","size_leaf_vector":"1"}},{"base_weights":[2.04345E-2,3.6354464E-1,-2.7354823E-2,5.30697E-1,1.3524613E-1,-9.324722E-2,2.0405532E-1,2.5453764E-1,6.9034517E-1,-5.9965956E-1,2.681421E-1,-1.7116316E-2,-3.4408855E-1,4.2812282E-1,-7.789304E-2,-1.1309435E-2,2.5935162E-2,3.618353E-2,-1.1216889E-2,-9.4536275E-2,1.3508283E-3,-1.9893593E-1,1.4256912E-2,9.232232E-3,-6.8975077E-3,4.3651406E-3,-2.4374777E-2,2.6588872E-2,-7.9626805E-4,1.8437108E-2,-1.34026995E-2],"categories":[],"categories_nodes":[],"categories_segments":[],"categories_sizes":[],"default_left":[0,0,0,0,0,0,0,0,0,0,0,0,0,0,0,0,0,0,0,0,0,0,0,0,0,0,0,0,0,0,0],"id":41,"left_children":[1,3,5,7,9,11,13,15,17,19,21,23,25,27,29,-1,-1,-1,-1,-1,-1,-1,-1,-1,-1,-1,-1,-1,-1,-1,-1],"loss_changes":[4.5544937E3,1.2957856E3,3.717618E3,8.6413135E2,1.4021528E3,3.6240115E3,3.413789E3,9.123037E2,3.7880908E2,1.7789287E3,8.786516E2,3.5493625E3,2.7335586E3,1.3858403E3,2.0324015E3,0E0,0E0,0E0,0E0,0E0,0E0,0E0,0E0,0E0,0E0,0E0,0E0,0E0,0E0,0E0,0E0],"parents":[2147483647,0,0,1,1,2,2,3,3,4,4,5,5,6,6,7,7,8,8,9,9,10,10,11,11,12,12,13,13,14,14],"right_children":[2,4,6,8,10,12,14,16,18,20,22,24,26,28,30,-1,-1,-1,-1,-1,-1,-1,-1,-1,-1,-1,-1,-1,-1,-1,-1],"split_conditions":[-2.0642276E0,7.4722874E-1,7.1887283E0,3.468152E-2,9.761963E-3,2.6160154E-1,4.225983E-1,9.740559E-2,5.636176E0,6.337217E1,1.1201776E0,5.269442E0,6.7969346E-1,6.8828683E0,1.0246633E0,-1.1309435E-2,2.5935162E-2,3.618353E-2,-1.1216889E-2,-9.4536275E-2,1.3508283E-3,-1.9893593E-1,1.4256912E-2,9.232232E-3,-6.8975077E-3,4.3651406E-3,-2.4374777E-2,2.6588872E-2,-7.9626805E-4,1.8437108E-2,-1.34026995E-2],"split_indices":[3,2,9,4,1,4,4,1,8,2,2,3,3,6,3,0,0,0,0,0,0,0,0,0,0,0,0,0,0,0,0],"split_type":[0,0,0,0,0,0,0,0,0,0,0,0,0,0,0,0,0,0,0,0,0,0,0,0,0,0,0,0,0,0,0],"sum_hessian":[2.7776222E5,3.395695E4,2.4380527E5,1.9602986E4,1.4353963E4,1.8977016E5,5.403511E4,7.182059E3,1.2420928E4,2.1976418E3,1.215632E4,1.4558566E5,4.4184504E4,3.0107682E4,2.3927426E4,2.5470686E3,4.6349907E3,1.1984496E4,4.364317E2,7.1748206E2,1.4801598E3,4.7527058E1,1.2108794E4,5.45316E4,9.1054055E4,1.102373E4,3.316077E4,2.440954E4,5.698141E3,7.14496E3,1.6782467E4],"tree_param":{"num_deleted":"0","num_feature":"10","num_nodes":"31","size_leaf_vector":"1"}},{"base_weights":[-4.2716083E-3,2.8758723E-1,-6.1357524E-2,3.195287E-1,-1.0232209E0,1.336689E-1,-1.6521354E-1,1.8501419E-1,5.4709256E-1,-2.187769E0,1.8880722E-1,4.2798236E-1,-7.6252505E-2,-7.606062E-2,-5.339091E-1,2.732766E-2,1.2569728E-3,2.914902E-2,-3.9173238E-2,-9.5468916E-2,-1.2539293E-1,7.6266505E-2,-4.6467006E-2,-5.2180975E-3,3.6510196E-2,2.9860593E-3,-3.809555E-2,1.6432043E-2,-9.337531E-3,-4.3612733E-2,-6.3085803E-3],"categories":[],"categories_nodes":[],"categories_segments":[],"categories_sizes":[],"default_left":[0,0,0,0,0,0,0,0,0,0,0,0,0,0,0,0,0,0,0,0,0,0,0,0,0,0,0,0,0,0,0],"id":42,"left_children":[1,3,5,7,9,11,13,15,17,19,21,23,25,27,29,-1,-1,-1,-1,-1,-1,-1,-1,-1,-1,-1,-1,-1,-1,-1,-1],"loss_changes":[4.562759E3,1.8761523E3,4.6394766E3,1.3387188E3,1.5050277E3,4.9175156E3,4.912877E3,1.5889324E3,7.763169E2,4.366284E1,7.8340717E2,5.3312153E3,4.3314023E3,5.39181E3,4.014918E3,0E0,0E0,0E0,0E0,0E0,0E0,0E0,0E0,0E0,0E0,0E0,0E0,0E0,0E0,0E0,0E0],"parents":[2147483647,0,0,1,1,2,2,3,3,4,4,5,5,6,6,7,7,8,8,9,9,10,10,11,11,12,12,13,13,14,14],"right_children":[2,4,6,8,10,12,14,16,18,20,22,24,26,28,30,-1,-1,-1,-1,-1,-1,-1,-1,-1,-1,-1,-1,-1,-1,-1,-1],"split_conditions":[-1.437874E-3,5.3849646E2,3.0469097E-2,4.2448777E-1,-5.036637E0,2.910755E1,8.4557295E0,7.3641855E-3,7.693917E-1,2.6932845E-2,-4.8226414E0,4.39929E0,1.2473524E-2,1.23562336E-1,2.4635777E0,2.732766E-2,1.2569728E-3,2.914902E-2,-3.9173238E-2,-9.5468916E-2,-1.2539293E-1,7.6266505E-2,-4.6467006E-2,-5.2180975E-3,3.6510196E-2,2.9860593E-3,-3.809555E-2,1.6432043E-2,-9.337531E-3,-4.3612733E-2,-6.3085803E-3],"split_indices":[3,2,4,1,9,3,3,6,4,1,9,2,4,4,9,0,0,0,0,0,0,0,0,0,0,0,0,0,0,0,0],"split_type":[0,0,0,0,0,0,0,0,0,0,0,0,0,0,0,0,0,0,0,0,0,0,0,0,0,0,0,0,0,0,0],"sum_hessian":[2.7385612E5,4.4801066E4,2.2905505E5,4.373607E4,1.0649951E3,7.959222E4,1.4946283E5,2.7488969E4,1.6247103E4,5.427254E2,5.222697E2,3.3135137E4,4.645708E4,1.2036019E5,2.9102648E4,8.427866E3,1.9061104E4,1.5820941E4,4.261608E2,2.9399512E2,2.4873029E2,2.3773755E2,2.8453214E2,1.1999475E4,2.1135664E4,3.876956E4,7.687521E3,2.5849188E4,9.4511E4,1.5904096E4,1.3198553E4],"tree_param":{"num_deleted":"0","num_feature":"10","num_nodes":"31","size_leaf_vector":"1"}},{"base_weights":[1.4434182E-2,3.3905122E-1,-3.0189313E-2,3.7665662E-1,-6.7965865E-1,-1.0587955E-1,1.5774341E-1,8.662117E-2,4.8027793E-1,-1.355975E0,1.93491E-1,8.373933E-2,-2.6385334E-1,2.0597959E-1,-4.1296875E-1,1.4363098E-2,-3.021266E-2,2.5922088E-2,1.9105182E-3,-9.948223E-2,-2.1361744E-3,7.4202806E-2,-4.319951E-2,1.600422E-2,-6.7562633E-3,-7.577054E-3,-4.2044893E-2,2.1084374E-2,1.459906E-3,1.3782544E-1,-2.4382642E-2],"categories":[],"categories_nodes":[],"categories_segments":[],"categories_sizes":[],"default_left":[0,0,0,0,0,0,0,0,0,0,0,0,0,0,0,0,0,0,0,0,0,0,0,0,0,0,0,0,0,0,0],"id":43,"left_children":[1,3,5,7,9,11,13,15,17,19,21,23,25,27,29,-1,-1,-1,-1,-1,-1,-1,-1,-1,-1,-1,-1,-1,-1,-1,-1],"loss_changes":[3.997967E3,1.2780454E3,3.4515261E3,9.6673047E2,7.0169196E2,5.181505E3,1.9179409E3,1.1740876E3,3.9982764E2,5.570288E2,7.100409E2,4.066612E3,6.1154297E3,2.4495916E3,1.2865914E3,0E0,0E0,0E0,0E0,0E0,0E0,0E0,0E0,0E0,0E0,0E0,0E0,0E0,0E0,0E0,0E0],"parents":[2147483647,0,0,1,1,2,2,3,3,4,4,5,5,6,6,7,7,8,8,9,9,10,10,11,11,12,12,13,13,14,14],"right_children":[2,4,6,8,10,12,14,16,18,20,22,24,26,28,30,-1,-1,-1,-1,-1,-1,-1,-1,-1,-1,-1,-1,-1,-1,-1,-1],"split_conditions":[-2.0642276E0,5.3849646E2,5.1151414E0,2.6932845E-2,-5.036637E0,4.173375E-2,2.3072505E0,1.0051681E-2,5.7535378E1,2.2869956E-1,-4.8226414E0,3.0373678E1,8.093848E0,2.6688678E0,5.219303E0,1.4363098E-2,-3.021266E-2,2.5922088E-2,1.9105182E-3,-9.948223E-2,-2.1361744E-3,7.4202806E-2,-4.319951E-2,1.600422E-2,-6.7562633E-3,-7.577054E-3,-4.2044893E-2,2.1084374E-2,1.459906E-3,1.3782544E-1,-2.4382642E-2],"split_indices":[3,2,9,1,9,4,4,0,2,1,9,3,3,5,9,0,0,0,0,0,0,0,0,0,0,0,0,0,0,0,0],"split_type":[0,0,0,0,0,0,0,0,0,0,0,0,0,0,0,0,0,0,0,0,0,0,0,0,0,0,0,0,0,0,0],"sum_hessian":[2.7599525E5,3.335381E4,2.4264145E5,3.2167004E4,1.1868059E3,1.7297564E5,6.966581E4,8.467726E3,2.369928E4,6.6847314E2,5.183328E2,7.861411E4,9.436152E4,6.423717E4,5.4286406E3,6.5624663E3,1.9052593E3,2.1815746E4,1.8835334E3,4.5055597E2,2.1791718E2,2.3325803E2,2.850748E2,3.7797406E4,4.0816707E4,7.898889E4,1.5372628E4,2.8932498E4,3.5304676E4,1.2414642E2,5.304494E3],"tree_param":{"num_deleted":"0","num_feature":"10","num_nodes":"31","size_leaf_vector":"1"}},{"base_weights":[1.8913835E-2,2.0870697E-1,-6.5431766E-2,1.0753844E-1,4.1439357E-1,-1.4808443E-1,1.24041215E-1,4.3994065E-2,5.5421716E-1,4.92773E-1,-3.5922834E-1,-2.276717E-2,-3.5808417E-1,-1.3256558E0,1.730137E-1,1.4316543E-2,-3.5705448E-3,3.5646394E-2,-6.1141234E-2,1.7489081E-2,3.3713173E-2,-5.1131587E-2,1.7234629E-2,-5.6705177E-3,2.2310432E-2,-4.5561638E-2,-9.128108E-3,-6.385655E-2,-7.275641E-2,6.436465E-4,1.9798705E-2],"categories":[],"categories_nodes":[],"categories_segments":[],"categories_sizes":[],"default_left":[0,0,0,0,0,0,0,0,0,0,0,0,0,0,0,0,0,0,0,0,0,0,0,0,0,0,0,0,0,0,0],"id":44,"left_children":[1,3,5,7,9,11,13,15,17,19,21,23,25,27,29,-1,-1,-1,-1,-1,-1,-1,-1,-1,-1,-1,-1,-1,-1,-1,-1],"loss_changes":[4.4232363E3,1.769008E3,2.9958123E3,1.6174763E3,1.6996982E3,3.5052231E3,4.1252734E3,1.3952976E3,2.0025195E3,6.602378E2,1.2047131E3,3.546072E3,4.8328154E3,1.0071045E1,2.0068086E3,0E0,0E0,0E0,0E0,0E0,0E0,0E0,0E0,0E0,0E0,0E0,0E0,0E0,0E0,0E0,0E0],"parents":[2147483647,0,0,1,1,2,2,3,3,4,4,5,5,6,6,7,7,8,8,9,9,10,10,11,11,12,12,13,13,14,14],"right_children":[2,4,6,8,10,12,14,16,18,20,22,24,26,28,30,-1,-1,-1,-1,-1,-1,-1,-1,-1,-1,-1,-1,-1,-1,-1,-1],"split_conditions":[1.0246633E0,1.04246025E1,1.026838E0,1.1691559E1,7.022259E1,1.1253272E-1,3.132645E-1,-1.119354E0,6.997162E0,3.8608205E-1,1.3048196E-1,5.866509E1,5.6050587E0,1.2939844E1,6.675348E-1,1.4316543E-2,-3.5705448E-3,3.5646394E-2,-6.1141234E-2,1.7489081E-2,3.3713173E-2,-5.1131587E-2,1.7234629E-2,-5.6705177E-3,2.2310432E-2,-4.5561638E-2,-9.128108E-3,-6.385655E-2,-7.275641E-2,6.436465E-4,1.9798705E-2],"split_indices":[3,5,7,9,2,8,5,3,8,1,1,0,5,2,8,0,0,0,0,0,0,0,0,0,0,0,0,0,0,0,0],"split_type":[0,0,0,0,0,0,0,0,0,0,0,0,0,0,0,0,0,0,0,0,0,0,0,0,0,